Protein Identifier,AAC_A,AAC_R,AAC_N,AAC_D,AAC_C,AAC_Q,AAC_E,AAC_G,AAC_H,AAC_I,AAC_L,AAC_K,AAC_M,AAC_F,AAC_P,AAC_S,AAC_T,AAC_W,AAC_Y,AAC_V,PSSM_A,PSSM_R,PSSM_N,PSSM_D,PSSM_C,PSSM_Q,PSSM_E,PSSM_G,PSSM_H,PSSM_I,PSSM_L,PSSM_K,PSSM_M,PSSM_F,PSSM_P,PSSM_S,PSSM_T,PSSM_W,PSSM_Y,PSSM_V
P00447,0.10300429184549356,0.02145922746781116,0.06437768240343347,0.04721030042918455,0.004291845493562232,0.055793991416309016,0.04721030042918455,0.08583690987124463,0.02575107296137339,0.04721030042918455,0.09871244635193133,0.0815450643776824,0.008583690987124463,0.04721030042918455,0.03862660944206009,0.04291845493562232,0.06866952789699571,0.02575107296137339,0.034334763948497854,0.05150214592274678,-0.4592274678111588,-1.0343347639484979,-0.7167381974248928,-1.184549356223176,-1.944206008583691,-0.5879828326180258,-0.721030042918455,-1.2832618025751072,-1.145922746781116,-1.3133047210300428,-1.167381974248927,-0.6523605150214592,-0.7939914163090128,-1.4678111587982832,-1.536480686695279,-0.3261802575107296,-0.5021459227467812,-2.072961373390558,-1.1587982832618027,-0.9742489270386266
P00812,0.07807807807807808,0.024024024024024024,0.03903903903903904,0.06306306306306306,0.018018018018018018,0.012012012012012012,0.06006006006006006,0.10510510510510511,0.03003003003003003,0.06306306306306306,0.10510510510510511,0.06606606606606606,0.03003003003003003,0.018018018018018018,0.05405405405405406,0.06606606606606606,0.04804804804804805,0.009009009009009009,0.03303303303303303,0.07807807807807808,-0.4294294294294294,-1.2372372372372373,-0.8798798798798799,-1.147147147147147,-1.7687687687687688,-0.8348348348348348,-0.8138138138138138,-1.2432432432432432,-1.3093093093093093,-1.075075075075075,-1.0690690690690692,-0.8198198198198198,-0.7117117117117117,-1.6366366366366367,-1.3933933933933933,-0.3483483483483483,-0.5795795795795796,-2.4144144144144146,-1.3903903903903905,-0.7597597597597597
P00830,0.10567514677103718,0.04892367906066536,0.021526418786692758,0.04892367906066536,0.0019569471624266144,0.03913894324853229,0.07436399217221135,0.09001956947162426,0.0136986301369863,0.06653620352250489,0.09393346379647749,0.05675146771037182,0.015655577299412915,0.03522504892367906,0.04892367906066536,0.0547945205479452,0.07240704500978473,0.0019569471624266144,0.021526418786692758,0.08806262230919765,-0.25440313111545987,-1.0391389432485323,-1.0019569471624266,-1.197651663405088,-1.8923679060665362,-0.6575342465753424,-0.6536203522504892,-1.350293542074364,-1.442270058708415,-1.0,-1.0078277886497065,-0.7142857142857143,-0.6771037181996086,-1.6281800391389432,-1.365949119373777,-0.3268101761252446,-0.40313111545988256,-2.5009784735812133,-1.452054794520548,-0.6203522504892368
P00927,0.07118055555555555,0.05555555555555555,0.04513888888888889,0.046875,0.008680555555555556,0.03993055555555555,0.059027777777777776,0.07118055555555555,0.03125,0.059027777777777776,0.0954861111111111,0.059027777777777776,0.017361111111111112,0.03993055555555555,0.046875,0.06944444444444445,0.052083333333333336,0.001736111111111111,0.034722222222222224,0.0954861111111111,-0.4791666666666667,-0.9791666666666666,-0.8246527777777778,-1.2239583333333333,-1.8871527777777777,-0.6232638888888888,-0.703125,-1.5173611111111112,-1.1475694444444444,-1.015625,-1.0069444444444444,-0.6822916666666666,-0.6388888888888888,-1.5017361111111112,-1.4618055555555556,-0.3680555555555556,-0.515625,-2.4479166666666665,-1.2135416666666667,-0.7152777777777778
P02829,0.06064880112834979,0.0380818053596615,0.036671368124118475,0.06629055007052186,0.0,0.031029619181946404,0.13399153737658676,0.03385049365303244,0.005641748942172073,0.0691114245416079,0.0930888575458392,0.10860366713681241,0.018335684062059238,0.0465444287729196,0.0380818053596615,0.0691114245416079,0.056417489421720736,0.007052186177715092,0.028208744710860368,0.05923836389280677,-0.6064880112834978,-0.8307475317348378,-0.7616361071932299,-0.8025387870239774,-2.139633286318759,-0.3469675599435825,-0.10860366713681241,-1.8067700987306066,-1.2454160789844853,-1.156558533145275,-1.0902679830747533,-0.25811001410437234,-0.691114245416079,-1.5641748942172073,-1.4287729196050776,-0.2834978843441467,-0.48801128349788436,-2.458392101551481,-1.3300423131170662,-0.843441466854725
P03069,0.06761565836298933,0.046263345195729534,0.046263345195729534,0.07829181494661921,0.0,0.028469750889679714,0.08540925266903915,0.021352313167259787,0.014234875444839857,0.03202846975088968,0.09608540925266904,0.08185053380782918,0.017793594306049824,0.03914590747330961,0.0711743772241993,0.1103202846975089,0.0711743772241993,0.0035587188612099642,0.014234875444839857,0.07473309608540925,-0.47330960854092524,-0.8540925266903915,-0.6014234875444839,-0.7330960854092526,-2.02135231316726,-0.3879003558718861,-0.25622775800711745,-1.704626334519573,-1.2348754448398576,-1.2633451957295374,-1.1850533807829182,-0.3416370106761566,-0.7402135231316725,-1.7544483985765125,-1.0640569395017794,-0.046263345195729534,-0.25622775800711745,-2.6512455516014235,-1.5266903914590748,-0.9288256227758007
P03962,0.09363295880149813,0.052434456928838954,0.02247191011235955,0.07116104868913857,0.0149812734082397,0.0299625468164794,0.06367041198501873,0.10112359550561797,0.0149812734082397,0.052434456928838954,0.09737827715355805,0.08239700374531835,0.02247191011235955,0.0299625468164794,0.026217228464419477,0.0449438202247191,0.06367041198501873,0.011235955056179775,0.033707865168539325,0.07116104868913857,-0.3857677902621723,-0.9662921348314607,-0.9288389513108615,-1.1123595505617978,-1.8239700374531835,-0.6591760299625468,-0.6704119850187266,-1.2696629213483146,-1.3632958801498127,-1.1835205992509363,-1.1086142322097379,-0.6142322097378277,-0.7378277153558053,-1.6029962546816479,-1.595505617977528,-0.37453183520599254,-0.5318352059925093,-2.3071161048689137,-1.3670411985018727,-0.8314606741573034
P04386,0.04880817253121453,0.04086265607264472,0.07037457434733257,0.0510783200908059,0.02043132803632236,0.05221339387060159,0.04540295119182747,0.032917139614074914,0.019296254256526674,0.06356413166855845,0.10783200908059024,0.053348467650397274,0.021566401816118047,0.043132803632236094,0.05221339387060159,0.11350737797956867,0.07491486946651532,0.01362088535754824,0.03064699205448354,0.04426787741203178,-0.5981838819523269,-1.0,-0.5925085130533485,-1.1010215664018161,-1.7150964812712826,-0.5391600454029511,-0.713961407491487,-1.7230419977298523,-1.1713961407491487,-1.1044267877412033,-0.9738933030646992,-0.6753688989784336,-0.5913734392735528,-1.4619750283768445,-1.4267877412031782,-0.12599318955732122,-0.2996594778660613,-2.3064699205448354,-1.2236095346197502,-0.9148694665153235
P04387,0.06896551724137931,0.034482758620689655,0.06206896551724138,0.03908045977011494,0.004597701149425287,0.041379310344827586,0.04827586206896552,0.0735632183908046,0.022988505747126436,0.08735632183908046,0.09195402298850575,0.05517241379310345,0.022988505747126436,0.04597701149425287,0.04827586206896552,0.08505747126436781,0.052873563218390804,0.006896551724137931,0.05057471264367816,0.05747126436781609,-0.5310344827586206,-1.1195402298850574,-0.7517241379310344,-1.2689655172413794,-1.8873563218390805,-0.7011494252873564,-0.8367816091954023,-1.4804597701149425,-1.1494252873563218,-0.9885057471264368,-0.9724137931034482,-0.8022988505747126,-0.6160919540229886,-1.3241379310344827,-1.5149425287356322,-0.296551724137931,-0.5241379310344828,-2.282758620689655,-1.0551724137931036,-0.767816091954023
P04807,0.06995884773662552,0.03909465020576132,0.03909465020576132,0.06995884773662552,0.00823045267489712,0.04526748971193416,0.06584362139917696,0.08436213991769548,0.0102880658436214,0.0823045267489712,0.0720164609053498,0.0720164609053498,0.026748971193415638,0.04938271604938271,0.059670781893004114,0.051440329218107,0.06172839506172839,0.00823045267489712,0.03292181069958848,0.051440329218107,-0.5596707818930041,-1.0617283950617284,-0.8353909465020576,-0.9897119341563786,-1.9753086419753085,-0.6069958847736625,-0.6193415637860082,-1.4115226337448559,-1.3189300411522633,-1.1872427983539096,-1.1893004115226338,-0.6748971193415638,-0.7448559670781894,-1.5267489711934157,-1.337448559670782,-0.3683127572016461,-0.551440329218107,-2.3559670781893005,-1.3189300411522633,-0.8806584362139918
P04821,0.04657016991818754,0.04153555695405916,0.08558842039018251,0.05852737570799245,0.007551919446192574,0.028319697923222153,0.0591567023285085,0.03146633102580239,0.02076777847702958,0.06419131529263687,0.08999370673379484,0.0723725613593455,0.019509125235997484,0.04657016991818754,0.04090623033354311,0.1340465701699182,0.06733794839521712,0.007551919446192574,0.030837004405286344,0.04719949653870359,-0.6028949024543738,-0.9093769666456891,-0.34550031466331027,-0.8917558212712398,-1.8993077407174324,-0.5191944619257395,-0.526117054751416,-1.617369414726243,-1.0516047828823158,-1.1925739458779105,-1.1246066708621774,-0.4977973568281938,-0.7016991818753934,-1.4940213971050975,-1.4663310258023914,0.025173064820641914,-0.2857142857142857,-2.4543738200125866,-1.2580239144115797,-1.0
P05373,0.09941520467836257,0.06140350877192982,0.038011695906432746,0.07017543859649122,0.02631578947368421,0.017543859649122806,0.05555555555555555,0.07602339181286549,0.02631578947368421,0.07602339181286549,0.09941520467836257,0.043859649122807015,0.017543859649122806,0.04093567251461988,0.05847953216374269,0.05555555555555555,0.038011695906432746,0.005847953216374269,0.04093567251461988,0.05263157894736842,-0.4269005847953216,-1.0935672514619883,-0.9619883040935673,-1.1783625730994152,-1.6754385964912282,-0.8304093567251462,-0.8450292397660819,-1.4649122807017543,-1.2339181286549707,-1.0730994152046784,-1.0555555555555556,-0.8801169590643275,-0.7514619883040936,-1.4649122807017543,-1.4298245614035088,-0.4298245614035088,-0.6608187134502924,-2.3976608187134505,-1.239766081871345,-0.847953216374269
P05453,0.06277372262773723,0.026277372262773723,0.06569343065693431,0.043795620437956206,0.0072992700729927005,0.07737226277372262,0.08321167883211679,0.08759124087591241,0.01897810218978102,0.04671532846715328,0.051094890510948905,0.09635036496350365,0.027737226277372264,0.02335766423357664,0.043795620437956206,0.051094890510948905,0.05693430656934306,0.00583941605839416,0.051094890510948905,0.072992700729927,-0.5737226277372263,-0.8204379562043795,-0.4905109489051095,-0.9021897810218978,-2.113868613138686,-0.20583941605839415,-0.29781021897810217,-1.2744525547445256,-0.9985401459854014,-1.4788321167883212,-1.4262773722627737,-0.3343065693430657,-0.8145985401459854,-1.764963503649635,-1.3489051094890512,-0.24233576642335766,-0.5416058394160584,-2.367883211678832,-1.2233576642335766,-1.018978102189781
P05986,0.03768844221105527,0.04271356783919598,0.06030150753768844,0.05778894472361809,0.010050251256281407,0.03768844221105527,0.0728643216080402,0.05778894472361809,0.02763819095477387,0.06281407035175879,0.08793969849246232,0.07035175879396985,0.02763819095477387,0.05025125628140704,0.05778894472361809,0.06030150753768844,0.05778894472361809,0.01256281407035176,0.052763819095477386,0.05527638190954774,-0.7839195979899497,-0.992462311557789,-0.6934673366834171,-1.0577889447236182,-2.020100502512563,-0.5552763819095478,-0.5954773869346733,-1.6608040201005025,-1.0025125628140703,-1.2085427135678393,-1.135678391959799,-0.6331658291457286,-0.6959798994974874,-1.3718592964824121,-1.4246231155778895,-0.42462311557788945,-0.5804020100502513,-2.201005025125628,-1.015075376884422,-0.9623115577889447
P06633,0.10909090909090909,0.045454545454545456,0.02727272727272727,0.05,0.01818181818181818,0.031818181818181815,0.08181818181818182,0.07727272727272727,0.05454545454545454,0.07272727272727272,0.09090909090909091,0.05454545454545454,0.01818181818181818,0.03636363636363636,0.031818181818181815,0.06818181818181818,0.05,0.004545454545454545,0.004545454545454545,0.07272727272727272,-0.2818181818181818,-1.0,-0.8818181818181818,-1.1363636363636365,-1.7454545454545454,-0.6454545454545455,-0.5954545454545455,-1.4,-1.0818181818181818,-1.0636363636363637,-1.0681818181818181,-0.7227272727272728,-0.7090909090909091,-1.6136363636363635,-1.5363636363636364,-0.2772727272727273,-0.5318181818181819,-2.518181818181818,-1.4136363636363636,-0.7545454545454545
P06700,0.051601423487544484,0.033807829181494664,0.06227758007117438,0.060498220640569395,0.019572953736654804,0.030249110320284697,0.046263345195729534,0.04804270462633452,0.030249110320284697,0.07295373665480427,0.09430604982206406,0.08718861209964412,0.023131672597864767,0.03914590747330961,0.06227758007117438,0.07473309608540925,0.05338078291814947,0.005338078291814947,0.03914590747330961,0.06583629893238434,-0.6476868327402135,-1.0462633451957295,-0.7099644128113879,-1.112099644128114,-1.804270462633452,-0.6637010676156584,-0.7330960854092526,-1.699288256227758,-1.1245551601423487,-1.0587188612099645,-1.0284697508896796,-0.6067615658362989,-0.6494661921708185,-1.491103202846975,-1.3505338078291815,-0.3416370106761566,-0.5124555160142349,-2.4359430604982206,-1.1939501779359432,-0.8202846975088968
P06701,0.0408997955010225,0.041922290388548056,0.06646216768916155,0.05725971370143149,0.007157464212678937,0.03578732106339468,0.09100204498977506,0.041922290388548056,0.013292433537832311,0.08895705521472393,0.08282208588957055,0.09713701431492842,0.022494887525562373,0.03783231083844581,0.03885480572597137,0.09406952965235174,0.04805725971370143,0.009202453987730062,0.024539877300613498,0.06032719836400818,-0.6676891615541922,-0.8670756646216768,-0.558282208588957,-0.9049079754601227,-2.0173824130879345,-0.4427402862985685,-0.37321063394683024,-1.7004089979550103,-1.1850715746421268,-1.1042944785276074,-1.0879345603271984,-0.37321063394683024,-0.6523517382413088,-1.5940695296523517,-1.483640081799591,-0.2085889570552147,-0.48261758691206547,-2.485685071574642,-1.3476482617586911,-0.8599182004089979
P06778,0.07430997876857749,0.055201698513800426,0.07006369426751592,0.07430997876857749,0.004246284501061571,0.044585987261146494,0.06157112526539278,0.05307855626326964,0.014861995753715499,0.04670912951167728,0.055201698513800426,0.08492569002123142,0.021231422505307854,0.03821656050955414,0.06369426751592357,0.07218683651804671,0.08067940552016985,0.004246284501061571,0.021231422505307854,0.059447983014861996,-0.5138004246284501,-0.7515923566878981,-0.40764331210191085,-0.7282377919320594,-2.05307855626327,-0.3651804670912951,-0.3481953290870488,-1.4161358811040339,-1.129511677282378,-1.4607218683651804,-1.4267515923566878,-0.346072186836518,-0.8768577494692145,-1.8259023354564756,-1.1464968152866242,-0.09978768577494693,-0.29936305732484075,-2.59447983014862,-1.505307855626327,-1.078556263269639
P06782,0.052132701421800945,0.03475513428120063,0.0631911532385466,0.06477093206951026,0.00631911532385466,0.037914691943127965,0.06635071090047394,0.045813586097946286,0.04897314375987362,0.07424960505529225,0.08688783570300158,0.07582938388625593,0.030015797788309637,0.0315955766192733,0.04739336492890995,0.09320695102685624,0.04739336492890995,0.011058451816745656,0.036334913112164295,0.045813586097946286,-0.674565560821485,-0.9289099526066351,-0.5244865718799369,-0.919431279620853,-2.0,-0.4660347551342812,-0.48657187993680884,-1.6240126382306477,-0.8451816745655608,-1.2243285939968405,-1.1658767772511849,-0.5371248025276462,-0.6966824644549763,-1.5387045813586098,-1.4249605055292258,-0.21484992101105846,-0.5418641390205371,-2.3791469194312795,-1.1579778830963665,-0.9984202211690363
P06786,0.04551820728291316,0.04201680672268908,0.056022408963585436,0.06372549019607843,0.0063025210084033615,0.0350140056022409,0.09313725490196079,0.0546218487394958,0.01610644257703081,0.08123249299719888,0.08053221288515407,0.11134453781512606,0.0196078431372549,0.036414565826330535,0.0392156862745098,0.06582633053221289,0.05812324929971989,0.01050420168067227,0.04201680672268908,0.042717086834733894,-0.7142857142857143,-0.8130252100840336,-0.5945378151260504,-0.8788515406162465,-2.09593837535014,-0.41876750700280113,-0.33753501400560226,-1.6351540616246498,-1.0959383753501402,-1.2696078431372548,-1.2016806722689075,-0.3165266106442577,-0.7626050420168067,-1.5798319327731092,-1.4782913165266107,-0.2976190476190476,-0.5350140056022409,-2.36624649859944,-1.2317927170868348,-0.9880952380952381
P06843,0.04804804804804805,0.08408408408408409,0.04504504504504504,0.07807807807807808,0.0,0.03003003003003003,0.11711711711711711,0.057057057057057055,0.015015015015015015,0.03303303303303303,0.06606606606606606,0.15015015015015015,0.02702702702702703,0.024024024024024024,0.06006006006006006,0.09009009009009009,0.018018018018018018,0.006006006006006006,0.024024024024024024,0.02702702702702703,-0.6756756756756757,-0.2732732732732733,-0.33933933933933935,-0.5105105105105106,-2.3963963963963963,-0.015015015015015015,0.16816816816816818,-1.3993993993993994,-0.93993993993994,-1.882882882882883,-1.6516516516516517,0.2822822822822823,-0.972972972972973,-2.057057057057057,-1.1111111111111112,-0.08108108108108109,-0.7177177177177178,-2.6426426426426426,-1.5915915915915917,-1.4984984984984986
P07270,0.08333333333333333,0.057692307692307696,0.060897435897435896,0.057692307692307696,0.003205128205128205,0.03205128205128205,0.0641025641025641,0.038461538461538464,0.041666666666666664,0.035256410256410256,0.07051282051282051,0.0641025641025641,0.016025641025641024,0.016025641025641024,0.07371794871794872,0.1282051282051282,0.07051282051282051,0.00641025641025641,0.01282051282051282,0.0673076923076923,-0.34935897435897434,-0.7403846153846154,-0.3814102564102564,-0.7948717948717948,-1.9647435897435896,-0.358974358974359,-0.3301282051282051,-1.4166666666666667,-0.9519230769230769,-1.455128205128205,-1.4006410256410255,-0.3717948717948718,-0.8717948717948718,-1.9583333333333333,-1.0032051282051282,0.11217948717948718,-0.22435897435897437,-2.6858974358974357,-1.560897435897436,-1.0833333333333333
P07272,0.049778761061946904,0.049778761061946904,0.06415929203539823,0.06084070796460177,0.017699115044247787,0.02654867256637168,0.059734513274336286,0.046460176991150445,0.012168141592920354,0.06415929203539823,0.07853982300884955,0.07079646017699115,0.024336283185840708,0.0586283185840708,0.046460176991150445,0.10176991150442478,0.059734513274336286,0.011061946902654867,0.03982300884955752,0.05752212389380531,-0.6238938053097345,-0.9900442477876106,-0.6349557522123894,-1.0309734513274336,-1.8163716814159292,-0.6316371681415929,-0.6559734513274337,-1.6194690265486726,-1.1803097345132743,-1.1504424778761062,-1.1150442477876106,-0.6128318584070797,-0.6869469026548672,-1.366150442477876,-1.4922566371681416,-0.2002212389380531,-0.43473451327433627,-2.293141592920354,-1.1581858407079646,-0.9347345132743363
P08524,0.07954545454545454,0.03125,0.036931818181818184,0.06818181818181818,0.017045454545454544,0.03977272727272727,0.08806818181818182,0.045454545454545456,0.014204545454545454,0.06534090909090909,0.10511363636363637,0.09943181818181818,0.019886363636363636,0.045454545454545456,0.02556818181818182,0.05113636363636364,0.04261363636363636,0.011363636363636364,0.056818181818181816,0.056818181818181816,-0.5823863636363636,-0.9886363636363636,-0.9232954545454546,-1.0767045454545454,-1.8494318181818181,-0.5198863636363636,-0.5,-1.7698863636363635,-1.1818181818181819,-1.0625,-0.9630681818181818,-0.5085227272727273,-0.6278409090909091,-1.3267045454545454,-1.6590909090909092,-0.4375,-0.6420454545454546,-2.2017045454545454,-1.0113636363636365,-0.8011363636363636
P08536,0.060665362035225046,0.06262230919765166,0.0410958904109589,0.07045009784735812,0.0019569471624266144,0.04500978473581213,0.06262230919765166,0.06653620352250489,0.0273972602739726,0.07632093933463796,0.10176125244618395,0.043052837573385516,0.009784735812133072,0.043052837573385516,0.05870841487279843,0.06262230919765166,0.046966731898238745,0.011741682974559686,0.03718199608610567,0.07045009784735812,-0.6281800391389433,-1.015655577299413,-0.8532289628180039,-1.0704500978473581,-2.0293542074363993,-0.6125244618395304,-0.6536203522504892,-1.5870841487279843,-1.1448140900195696,-1.076320939334638,-1.0645792563600782,-0.776908023483366,-0.7181996086105675,-1.4696673189823874,-1.4070450097847358,-0.45401174168297453,-0.6066536203522505,-2.3385518590998045,-1.1859099804305284,-0.8434442270058709
P08638,0.05756207674943566,0.04966139954853273,0.06772009029345373,0.046275395033860044,0.01580135440180587,0.03724604966139955,0.07900677200902935,0.034988713318284424,0.016930022573363433,0.05981941309255079,0.08803611738148984,0.060948081264108354,0.025959367945823927,0.03837471783295711,0.04401805869074492,0.1072234762979684,0.06772009029345373,0.012415349887133182,0.029345372460496615,0.060948081264108354,-0.5417607223476298,-0.8984198645598194,-0.5756207674943566,-1.028216704288939,-1.817155756207675,-0.4785553047404063,-0.5079006772009029,-1.674943566591422,-1.1501128668171559,-1.1433408577878104,-1.0688487584650113,-0.5440180586907449,-0.6331828442437923,-1.5474040632054176,-1.4424379232505644,-0.12076749435665914,-0.32505643340857787,-2.371331828442438,-1.2799097065462754,-0.8871331828442438
P08640,0.06364301389904901,0.001463057790782736,0.026335040234089245,0.010241404535479151,0.014630577907827359,0.014630577907827359,0.05047549378200439,0.03291880029261156,0.0036576444769568397,0.023408924652523776,0.02121433796634967,0.021945866861741038,0.0036576444769568397,0.013167520117044623,0.10460863204096561,0.2538405267008047,0.24725676664228238,0.005852231163130944,0.016825164594001463,0.07022677395757132,0.10899780541331383,-1.2560351133869787,-0.40307242136064375,-0.8858814923189466,-1.4089246525237746,-0.6488661302121433,-0.5881492318946598,-1.246525237746891,-1.5142648134601318,-1.3489392831016824,-1.4564740307242137,-0.7088514996342355,-0.9707388441843453,-1.989758595464521,-0.5106071689831748,0.9173372348207754,1.0790051207022677,-2.580833942940746,-1.7593269934162399,-0.8010241404535479
P08964,0.037863070539419084,0.04304979253112033,0.0783195020746888,0.05549792531120332,0.007261410788381743,0.05705394190871369,0.10580912863070539,0.026970954356846474,0.016078838174273857,0.06898340248962656,0.1187759336099585,0.1078838174273859,0.014522821576763486,0.03163900414937759,0.016597510373443983,0.09439834024896265,0.0487551867219917,0.005705394190871369,0.029564315352697094,0.035269709543568464,-0.7261410788381742,-0.6488589211618258,-0.3698132780082988,-0.8148340248962656,-2.0767634854771786,-0.18205394190871368,-0.15819502074688796,-1.8013485477178424,-1.0150414937759336,-1.2442946058091287,-1.0425311203319503,-0.1628630705394191,-0.6410788381742739,-1.633817427385892,-1.6426348547717842,-0.14056016597510373,-0.47717842323651455,-2.492219917012448,-1.2930497925311204,-1.0274896265560165
P09201,0.06609195402298851,0.04310344827586207,0.05459770114942529,0.06896551724137931,0.014367816091954023,0.031609195402298854,0.04597701149425287,0.08620689655172414,0.022988505747126436,0.07183908045977011,0.09770114942528736,0.05172413793103448,0.020114942528735632,0.05747126436781609,0.04310344827586207,0.06896551724137931,0.0603448275862069,0.005747126436781609,0.02586206896551724,0.06321839080459771,-0.5488505747126436,-1.146551724137931,-0.7586206896551724,-1.0948275862068966,-1.8218390804597702,-0.7873563218390804,-0.8333333333333334,-1.382183908045977,-1.2614942528735633,-1.0603448275862069,-1.0517241379310345,-0.853448275862069,-0.7040229885057471,-1.396551724137931,-1.5545977011494252,-0.33620689655172414,-0.514367816091954,-2.3735632183908044,-1.278735632183908,-0.8390804597701149
P09798,0.075,0.036904761904761905,0.09285714285714286,0.06547619047619048,0.01904761904761905,0.03571428571428571,0.05238095238095238,0.03214285714285714,0.02023809523809524,0.04285714285714286,0.11071428571428571,0.07380952380952381,0.02619047619047619,0.04047619047619048,0.03214285714285714,0.09166666666666666,0.05952380952380952,0.007142857142857143,0.04285714285714286,0.04285714285714286,-0.5642857142857143,-0.9083333333333333,-0.4142857142857143,-0.9654761904761905,-1.7607142857142857,-0.5083333333333333,-0.5964285714285714,-1.6369047619047619,-1.0416666666666667,-1.2107142857142856,-1.0464285714285715,-0.5333333333333333,-0.655952380952381,-1.4714285714285715,-1.5678571428571428,-0.12142857142857143,-0.39166666666666666,-2.3845238095238095,-1.1738095238095239,-1.0011904761904762
P09938,0.08771929824561403,0.03759398496240601,0.05764411027568922,0.05764411027568922,0.005012531328320802,0.022556390977443608,0.11278195488721804,0.03508771929824561,0.02506265664160401,0.06015037593984962,0.09022556390977443,0.08771929824561403,0.02756892230576441,0.07518796992481203,0.03007518796992481,0.06265664160401002,0.03508771929824561,0.015037593984962405,0.02756892230576441,0.047619047619047616,-0.5864661654135338,-0.9172932330827067,-0.7493734335839599,-0.9849624060150376,-2.025062656641604,-0.5137844611528822,-0.3583959899749373,-1.7293233082706767,-1.0401002506265664,-1.167919799498747,-1.0701754385964912,-0.48120300751879697,-0.6616541353383458,-1.2581453634085213,-1.6265664160401003,-0.3408521303258145,-0.6491228070175439,-2.2280701754385963,-1.0902255639097744,-0.9348370927318296
P0C0X0,0.029850746268656716,0.14925373134328357,0.029850746268656716,0.04477611940298507,0.0,0.014925373134328358,0.08955223880597014,0.07462686567164178,0.0,0.04477611940298507,0.08955223880597014,0.05970149253731343,0.029850746268656716,0.014925373134328358,0.029850746268656716,0.05970149253731343,0.08955223880597014,0.0,0.0,0.14925373134328357,-0.5074626865671642,-0.43283582089552236,-0.7910447761194029,-1.208955223880597,-2.0597014925373136,-0.4925373134328358,-0.47761194029850745,-1.5820895522388059,-1.507462686567164,-0.9552238805970149,-0.9552238805970149,-0.3283582089552239,-0.5223880597014925,-1.9253731343283582,-1.507462686567164,-0.417910447761194,-0.22388059701492538,-2.716417910447761,-1.7462686567164178,-0.5671641791044776
P10862,0.030800821355236138,0.0513347022587269,0.06365503080082136,0.06365503080082136,0.024640657084188913,0.045174537987679675,0.06981519507186858,0.03696098562628337,0.022587268993839837,0.045174537987679675,0.0944558521560575,0.08418891170431211,0.03285420944558522,0.03490759753593429,0.053388090349075976,0.12525667351129363,0.059548254620123205,0.008213552361396304,0.01642710472279261,0.03696098562628337,-0.6550308008213552,-0.757700205338809,-0.41478439425051333,-0.8193018480492813,-1.8336755646817249,-0.3264887063655031,-0.3860369609856263,-1.626283367556468,-1.0780287474332648,-1.4024640657084189,-1.219712525667351,-0.3326488706365503,-0.6858316221765913,-1.731006160164271,-1.3080082135523614,-0.01026694045174538,-0.3798767967145791,-2.4948665297741273,-1.4537987679671458,-1.160164271047228
P11075,0.057242409158785465,0.042309606769537086,0.06570433051269288,0.07565953210552513,0.012941762070681932,0.042309606769537086,0.08710801393728224,0.03434544549527128,0.016923842707814832,0.06371329019412643,0.10004977600796416,0.05774016923842708,0.019412643106022896,0.04728720756595321,0.030363364858138377,0.10253857640617223,0.05774016923842708,0.007466401194624191,0.02140368342458935,0.05774016923842708,-0.5878546540567446,-0.9586859133897462,-0.5425584868093579,-0.7999004479840717,-1.8815331010452963,-0.45196615231458437,-0.3892483822797412,-1.6849178695868592,-1.1557989049278248,-1.120955699352912,-1.0701841712294673,-0.5759084121453459,-0.670980587356894,-1.5171727227476357,-1.5540069686411149,-0.13389746142359382,-0.39522150323544053,-2.467894474863116,-1.3305126928820308,-0.90741662518666
P11746,0.05244755244755245,0.027972027972027972,0.055944055944055944,0.055944055944055944,0.0034965034965034965,0.2692307692307692,0.06293706293706294,0.05244755244755245,0.03496503496503497,0.03496503496503497,0.05944055944055944,0.038461538461538464,0.02097902097902098,0.024475524475524476,0.06643356643356643,0.045454545454545456,0.04195804195804196,0.0,0.017482517482517484,0.03496503496503497,-0.7027972027972028,-0.47202797202797203,-0.3146853146853147,-0.5244755244755245,-2.3461538461538463,0.8776223776223776,0.2202797202797203,-1.506993006993007,-0.6608391608391608,-1.867132867132867,-1.5874125874125875,-0.2097902097902098,-0.6993006993006993,-2.111888111888112,-1.0,-0.16433566433566432,-0.6433566433566433,-2.4895104895104896,-1.3356643356643356,-1.367132867132867
P11978,0.04344624447717231,0.035346097201767304,0.07363770250368189,0.05670103092783505,0.003681885125184094,0.04197349042709867,0.07952871870397643,0.028718703976435934,0.01914580265095729,0.06553755522827688,0.06774668630338733,0.11634756995581738,0.014727540500736377,0.027245949926362298,0.05670103092783505,0.12812960235640647,0.07216494845360824,0.004418262150220913,0.015463917525773196,0.04933726067746686,-0.5736377025036818,-0.7083946980854198,-0.27319587628865977,-0.6944035346097202,-2.06259204712813,-0.25699558173784975,-0.187039764359352,-1.6001472754050075,-1.0699558173784978,-1.3969072164948453,-1.3350515463917525,-0.11413843888070692,-0.8092783505154639,-1.8726067746686303,-1.167157584683358,0.10824742268041238,-0.23932253313696614,-2.6759941089837995,-1.533136966126657,-1.069219440353461
P12383,0.03932584269662921,0.040262172284644196,0.09269662921348315,0.05337078651685393,0.02247191011235955,0.03651685393258427,0.05898876404494382,0.03932584269662921,0.02247191011235955,0.06179775280898876,0.09082397003745318,0.06647940074906367,0.020599250936329586,0.06179775280898876,0.03745318352059925,0.10486891385767791,0.054307116104868915,0.00749063670411985,0.03464419475655431,0.054307116104868915,-0.7031835205992509,-0.9831460674157303,-0.4307116104868914,-1.0084269662921348,-1.794007490636704,-0.5805243445692884,-0.6432584269662921,-1.6573033707865168,-1.0299625468164795,-1.152621722846442,-1.0852059925093633,-0.6179775280898876,-0.6704119850187266,-1.349250936329588,-1.597378277153558,-0.16666666666666666,-0.4438202247191011,-2.351123595505618,-1.1254681647940075,-0.9803370786516854
P12753,0.037347560975609755,0.04496951219512195,0.0701219512195122,0.07393292682926829,0.006859756097560976,0.06021341463414634,0.10060975609756098,0.022103658536585365,0.01676829268292683,0.07698170731707317,0.11661585365853659,0.11356707317073171,0.020579268292682928,0.02972560975609756,0.010670731707317074,0.08231707317073171,0.055640243902439025,0.0038109756097560975,0.021341463414634148,0.035823170731707314,-0.7477134146341463,-0.6326219512195121,-0.39939024390243905,-0.7240853658536586,-2.075457317073171,-0.16158536585365854,-0.12728658536585366,-1.8711890243902438,-1.0617378048780488,-1.1890243902439024,-1.0121951219512195,-0.1402439024390244,-0.6013719512195121,-1.669969512195122,-1.6692073170731707,-0.1798780487804878,-0.45198170731707316,-2.5564024390243905,-1.3734756097560976,-0.9763719512195121
P12904,0.031055900621118012,0.052795031055900624,0.043478260869565216,0.08074534161490683,0.012422360248447204,0.043478260869565216,0.046583850931677016,0.046583850931677016,0.012422360248447204,0.08385093167701864,0.13043478260869565,0.059006211180124224,0.021739130434782608,0.034161490683229816,0.031055900621118012,0.08385093167701864,0.059006211180124224,0.003105590062111801,0.034161490683229816,0.09006211180124224,-0.6801242236024845,-1.0869565217391304,-0.8633540372670807,-1.1180124223602483,-1.795031055900621,-0.6645962732919255,-0.7701863354037267,-1.8509316770186335,-1.3819875776397517,-0.7204968944099379,-0.7080745341614907,-0.7484472049689441,-0.4409937888198758,-1.406832298136646,-1.6521739130434783,-0.4161490683229814,-0.4440993788819876,-2.4565217391304346,-1.2484472049689441,-0.562111801242236
P14291,0.02418379685610641,0.03385731559854897,0.07496977025392987,0.060459492140266025,0.013301088270858524,0.05804111245465538,0.094316807738815,0.02781136638452237,0.018137847642079808,0.07496977025392987,0.08585247883917775,0.1185006045949214,0.014510278113663845,0.04836759371221282,0.036275695284159616,0.08585247883917775,0.056831922611850064,0.006045949214026602,0.014510278113663845,0.053204353083434096,-0.7847642079806529,-0.75453446191052,-0.4159613059250302,-0.7714631197097944,-2.0507859733978235,-0.25634824667472794,-0.20918984280532044,-1.8125755743651752,-1.0773881499395406,-1.2478839177750907,-1.162031438935913,-0.18863361547763,-0.6928657799274486,-1.6408706166868199,-1.4727932285368803,-0.18863361547763,-0.4498186215235792,-2.532043530834341,-1.3688029020556227,-0.9879081015719468
P14682,0.03728813559322034,0.04406779661016949,0.0576271186440678,0.16271186440677965,0.003389830508474576,0.03728813559322034,0.0847457627118644,0.02711864406779661,0.020338983050847456,0.06440677966101695,0.04745762711864407,0.05084745762711865,0.02711864406779661,0.04406779661016949,0.06440677966101695,0.09491525423728814,0.02711864406779661,0.010169491525423728,0.03728813559322034,0.0576271186440678,-0.8508474576271187,-1.0440677966101695,-0.4,-0.08135593220338982,-2.2033898305084745,-0.33559322033898303,-0.06440677966101695,-1.6338983050847458,-0.9627118644067797,-1.4474576271186441,-1.5898305084745763,-0.5796610169491525,-0.976271186440678,-1.6677966101694914,-1.1864406779661016,-0.18983050847457628,-0.6338983050847458,-2.5627118644067797,-1.3423728813559321,-1.2169491525423728
P14741,0.07540983606557378,0.05245901639344262,0.03934426229508197,0.06229508196721312,0.009836065573770493,0.019672131147540985,0.07213114754098361,0.05573770491803279,0.019672131147540985,0.08196721311475409,0.09836065573770492,0.04918032786885246,0.02622950819672131,0.04590163934426229,0.03934426229508197,0.06557377049180328,0.06885245901639345,0.006557377049180328,0.029508196721311476,0.08196721311475409,-0.4852459016393443,-1.1049180327868853,-0.9377049180327869,-1.1770491803278689,-1.8,-0.7672131147540984,-0.7344262295081967,-1.6852459016393442,-1.3278688524590163,-0.8229508196721311,-0.8622950819672132,-0.8131147540983606,-0.5606557377049181,-1.380327868852459,-1.5573770491803278,-0.39672131147540984,-0.4163934426229508,-2.3934426229508197,-1.2491803278688525,-0.5868852459016394
P14904,0.06031128404669261,0.03501945525291829,0.054474708171206226,0.06031128404669261,0.009727626459143969,0.027237354085603113,0.07587548638132295,0.08560311284046693,0.027237354085603113,0.06031128404669261,0.09727626459143969,0.07392996108949416,0.011673151750972763,0.05058365758754864,0.04669260700389105,0.06420233463035019,0.054474708171206226,0.011673151750972763,0.029182879377431907,0.06420233463035019,-0.6011673151750972,-1.0680933852140078,-0.7101167315175098,-1.0233463035019454,-1.982490272373541,-0.6731517509727627,-0.6128404669260701,-1.377431906614786,-1.1536964980544746,-1.2217898832684826,-1.1770428015564203,-0.6673151750972762,-0.8073929961089494,-1.490272373540856,-1.4844357976653697,-0.3424124513618677,-0.5700389105058365,-2.3249027237354087,-1.2607003891050583,-0.9416342412451362
P15442,0.04460518384569018,0.05244122965641953,0.06570223025919228,0.06871609403254973,0.004219409282700422,0.03918022905364678,0.06811332127787824,0.03918022905364678,0.017480409885473176,0.07233273056057866,0.09885473176612417,0.07293550331525014,0.02230259192284509,0.047619047619047616,0.03676913803496082,0.10006027727546715,0.05364677516576251,0.011452682338758288,0.033152501506931886,0.05123568414707655,-0.6841470765521398,-0.8872814948764316,-0.5617842073538276,-0.9336949969861362,-1.9945750452079567,-0.484629294755877,-0.5051235684147076,-1.698010849909584,-1.11332127787824,-1.1277878239903556,-1.0476190476190477,-0.5183845690174804,-0.6395418927064497,-1.4430379746835442,-1.5485232067510548,-0.20976491862567812,-0.4653405666063894,-2.357444243520193,-1.208559373116335,-0.9409282700421941
P15873,0.050387596899224806,0.031007751937984496,0.023255813953488372,0.10465116279069768,0.015503875968992248,0.03488372093023256,0.07364341085271318,0.046511627906976744,0.007751937984496124,0.09302325581395349,0.12403100775193798,0.06976744186046512,0.023255813953488372,0.06589147286821706,0.031007751937984496,0.09302325581395349,0.046511627906976744,0.0,0.015503875968992248,0.050387596899224806,-0.6201550387596899,-1.2015503875968991,-0.9418604651162791,-0.8527131782945736,-1.7945736434108528,-0.686046511627907,-0.5930232558139535,-1.7945736434108528,-1.4612403100775193,-0.8333333333333334,-0.8178294573643411,-0.7403100775193798,-0.5387596899224806,-1.302325581395349,-1.627906976744186,-0.313953488372093,-0.5465116279069767,-2.496124031007752,-1.3565891472868217,-0.7131782945736435
P15992,0.0514018691588785,0.037383177570093455,0.08411214953271028,0.09813084112149532,0.0,0.02336448598130841,0.056074766355140186,0.07009345794392523,0.014018691588785047,0.04205607476635514,0.07476635514018691,0.09345794392523364,0.004672897196261682,0.0514018691588785,0.06542056074766354,0.07476635514018691,0.03271028037383177,0.009345794392523364,0.03271028037383177,0.08411214953271028,-0.705607476635514,-1.0093457943925233,-0.411214953271028,-0.6495327102803738,-2.182242990654206,-0.5794392523364486,-0.4485981308411215,-1.3271028037383177,-1.1261682242990654,-1.4158878504672898,-1.4485981308411215,-0.4766355140186916,-0.9766355140186916,-1.6495327102803738,-1.2523364485981308,-0.2523364485981308,-0.6121495327102804,-2.5233644859813085,-1.3598130841121496,-1.1074766355140186
P16474,0.08357771260997067,0.02932551319648094,0.04985337243401759,0.08651026392961877,0.001466275659824047,0.030791788856304986,0.08064516129032258,0.07771260997067449,0.011730205278592375,0.06304985337243402,0.09090909090909091,0.08797653958944282,0.013196480938416423,0.036656891495601175,0.02932551319648094,0.05718475073313783,0.05865102639296188,0.001466275659824047,0.026392961876832845,0.08357771260997067,-0.4604105571847507,-1.0395894428152492,-0.6832844574780058,-0.8035190615835777,-2.0146627565982405,-0.5762463343108505,-0.42961876832844575,-1.3797653958944283,-1.316715542521994,-1.1202346041055717,-1.155425219941349,-0.5381231671554252,-0.7873900293255132,-1.6422287390029326,-1.5087976539589443,-0.2697947214076246,-0.4706744868035191,-2.56891495601173,-1.43841642228739,-0.7785923753665689
P16522,0.0670926517571885,0.04472843450479233,0.052715654952076675,0.06549520766773163,0.022364217252396165,0.04952076677316294,0.07987220447284345,0.038338658146964855,0.01437699680511182,0.05591054313099041,0.1134185303514377,0.07507987220447285,0.027156549520766772,0.054313099041533544,0.01437699680511182,0.07348242811501597,0.04153354632587859,0.01597444089456869,0.05750798722044728,0.036741214057507986,-0.6549520766773163,-0.9201277955271565,-0.7747603833865815,-1.0814696485623003,-1.7859424920127795,-0.46006389776357826,-0.5463258785942492,-1.7779552715654952,-1.0798722044728435,-1.1373801916932906,-0.9488817891373802,-0.5734824281150159,-0.5766773162939297,-1.220447284345048,-1.8083067092651757,-0.3514376996805112,-0.6277955271565495,-2.070287539936102,-0.9249201277955271,-0.9584664536741214
P16649,0.07152875175315568,0.037868162692847124,0.061711079943899017,0.06030855539971949,0.009817671809256662,0.08555399719495091,0.05049088359046283,0.047685834502103785,0.019635343618513323,0.037868162692847124,0.08415147265077139,0.05049088359046283,0.011220196353436185,0.0182328190743338,0.05049088359046283,0.09817671809256662,0.10098176718092566,0.008415147265077139,0.028050490883590462,0.06732117812061711,-0.42496493688639553,-0.8723702664796634,-0.4600280504908836,-0.8513323983169705,-1.8639551192145862,-0.24684431977559607,-0.4221598877980365,-1.4740532959326789,-1.1304347826086956,-1.3394109396914446,-1.2482468443197756,-0.5273492286115007,-0.7643758765778401,-1.8302945301542777,-1.241234221598878,0.001402524544179523,-0.11921458625525946,-2.4712482468443198,-1.4165497896213184,-0.9551192145862553
P17065,0.061923583662714096,0.03820816864295125,0.06060606060606061,0.08563899868247694,0.011857707509881422,0.04479578392621871,0.08563899868247694,0.034255599472990776,0.014492753623188406,0.06060606060606061,0.08827404479578392,0.09354413702239789,0.011857707509881422,0.022397891963109356,0.025032938076416336,0.13306982872200263,0.06455862977602109,0.00922266139657444,0.017127799736495388,0.03689064558629776,-0.49538866930171277,-0.7720685111989459,-0.33201581027667987,-0.5586297760210803,-1.9183135704874836,-0.2635046113306983,-0.15810276679841898,-1.5270092226613965,-1.1304347826086956,-1.38866930171278,-1.295125164690382,-0.25428194993412384,-0.8274044795783926,-1.8274044795783926,-1.4466403162055337,0.13965744400527008,-0.2845849802371542,-2.5849802371541504,-1.541501976284585,-1.1133069828722002
P17106,0.08262108262108261,0.05413105413105413,0.07692307692307693,0.07977207977207977,0.002849002849002849,0.05982905982905983,0.11965811965811966,0.04843304843304843,0.02564102564102564,0.039886039886039885,0.07692307692307693,0.08262108262108261,0.019943019943019943,0.0,0.02564102564102564,0.09401709401709402,0.05982905982905983,0.005698005698005698,0.022792022792022793,0.022792022792022793,-0.48148148148148145,-0.48148148148148145,-0.09116809116809117,-0.37606837606837606,-2.1823361823361824,0.04843304843304843,0.18518518518518517,-1.3276353276353277,-0.8404558404558404,-1.7378917378917378,-1.566951566951567,-0.07977207977207977,-0.9686609686609686,-2.1196581196581197,-1.3447293447293447,0.12535612535612536,-0.3732193732193732,-2.675213675213675,-1.603988603988604,-1.3532763532763532
P17423,0.07563025210084033,0.047619047619047616,0.047619047619047616,0.047619047619047616,0.022408963585434174,0.0392156862745098,0.056022408963585436,0.0784313725490196,0.011204481792717087,0.06722689075630252,0.11204481792717087,0.036414565826330535,0.0196078431372549,0.028011204481792718,0.08123249299719888,0.06722689075630252,0.06162464985994398,0.0056022408963585435,0.03081232492997199,0.06442577030812324,-0.4369747899159664,-1.1372549019607843,-0.907563025210084,-1.2380952380952381,-1.711484593837535,-0.7310924369747899,-0.8431372549019608,-1.4677871148459383,-1.42296918767507,-1.050420168067227,-0.988795518207283,-0.865546218487395,-0.6638655462184874,-1.6470588235294117,-1.184873949579832,-0.35014005602240894,-0.46218487394957986,-2.4677871148459385,-1.4201680672268908,-0.7647058823529411
P17555,0.07984790874524715,0.024714828897338403,0.058935361216730035,0.058935361216730035,0.0076045627376425855,0.04182509505703422,0.06844106463878327,0.055133079847908745,0.009505703422053232,0.057034220532319393,0.06844106463878327,0.08745247148288973,0.013307984790874524,0.03802281368821293,0.06653992395437262,0.11026615969581749,0.058935361216730035,0.009505703422053232,0.028517110266159697,0.057034220532319393,-0.4144486692015209,-0.9847908745247148,-0.5665399239543726,-0.8536121673003803,-1.9315589353612168,-0.46387832699619774,-0.43155893536121676,-1.397338403041825,-1.2395437262357414,-1.344106463878327,-1.317490494296578,-0.4448669201520912,-0.8384030418250951,-1.709125475285171,-1.1520912547528517,-0.009505703422053232,-0.37072243346007605,-2.488593155893536,-1.420152091254753,-0.9923954372623575
P17709,0.062,0.044,0.03,0.064,0.014,0.038,0.066,0.076,0.03,0.054,0.118,0.064,0.028,0.038,0.044,0.066,0.072,0.004,0.026,0.062,-0.53,-1.014,-0.854,-1.106,-1.844,-0.612,-0.662,-1.524,-1.226,-1.096,-0.978,-0.682,-0.62,-1.532,-1.468,-0.34,-0.456,-2.396,-1.324,-0.822
P19262,0.09287257019438445,0.047516198704103674,0.038876889848812095,0.038876889848812095,0.0021598272138228943,0.02159827213822894,0.09071274298056156,0.058315334773218146,0.008639308855291577,0.047516198704103674,0.0755939524838013,0.09287257019438445,0.028077753779697623,0.032397408207343416,0.056155507559395246,0.08423326133909287,0.08423326133909287,0.0021598272138228943,0.017278617710583154,0.07991360691144708,-0.28293736501079914,-0.8293736501079914,-0.7451403887688985,-1.060475161987041,-1.9352051835853132,-0.49892008639308855,-0.4146868250539957,-1.468682505399568,-1.3650107991360692,-1.181425485961123,-1.1317494600431965,-0.35205183585313177,-0.6846652267818575,-1.7580993520518358,-1.2008639308855291,-0.10151187904967603,-0.23326133909287258,-2.5809935205183585,-1.5399568034557236,-0.7602591792656588
P19736,0.03773584905660377,0.06792452830188679,0.04905660377358491,0.05849056603773585,0.013207547169811321,0.04716981132075472,0.11509433962264151,0.033962264150943396,0.022641509433962263,0.0509433962264151,0.10943396226415095,0.09245283018867924,0.020754716981132074,0.0509433962264151,0.03773584905660377,0.07169811320754717,0.03207547169811321,0.007547169811320755,0.04905660377358491,0.03207547169811321,-0.8018867924528302,-0.6320754716981132,-0.6433962264150943,-0.9188679245283019,-2.1018867924528304,-0.24150943396226415,-0.20943396226415095,-1.8396226415094339,-0.9018867924528302,-1.3660377358490565,-1.1358490566037736,-0.2660377358490566,-0.6924528301886792,-1.4471698113207547,-1.5452830188679245,-0.3641509433962264,-0.7094339622641509,-2.290566037735849,-1.0528301886792453,-1.149056603773585
P20050,0.03636363636363636,0.03966942148760331,0.06942148760330578,0.06115702479338843,0.01818181818181818,0.0512396694214876,0.0628099173553719,0.03305785123966942,0.009917355371900827,0.05619834710743802,0.10578512396694215,0.09256198347107437,0.01652892561983471,0.05454545454545454,0.04132231404958678,0.08760330578512397,0.07107438016528926,0.008264462809917356,0.01818181818181818,0.06611570247933884,-0.684297520661157,-0.9057851239669421,-0.5851239669421487,-0.9834710743801653,-1.8479338842975206,-0.46611570247933887,-0.5322314049586777,-1.7851239669421488,-1.262809917355372,-1.1090909090909091,-0.9950413223140496,-0.4380165289256198,-0.6049586776859505,-1.5074380165289256,-1.4892561983471075,-0.22479338842975208,-0.3504132231404959,-2.424793388429752,-1.3305785123966942,-0.8710743801652893
P20967,0.0621301775147929,0.048323471400394474,0.04043392504930966,0.05226824457593689,0.006903353057199211,0.045364891518737675,0.07001972386587771,0.06903353057199212,0.03353057199211045,0.045364891518737675,0.09664694280078895,0.06903353057199212,0.011834319526627219,0.04930966469428008,0.05029585798816568,0.07889546351084813,0.0611439842209073,0.016765285996055226,0.03353057199211045,0.05917159763313609,-0.5779092702169625,-0.9250493096646942,-0.747534516765286,-1.081854043392505,-1.995069033530572,-0.5108481262327417,-0.5581854043392505,-1.4773175542406312,-1.0404339250493098,-1.3116370808678501,-1.1883629191321499,-0.5857988165680473,-0.772189349112426,-1.482248520710059,-1.4230769230769231,-0.28994082840236685,-0.5157790927021696,-2.2071005917159763,-1.1637080867850098,-1.0167652859960552
P21182,0.03787878787878788,0.022727272727272728,0.050505050505050504,0.0707070707070707,0.020202020202020204,0.03535353535353535,0.07575757575757576,0.03535353535353535,0.030303030303030304,0.047979797979797977,0.10101010101010101,0.08838383838383838,0.022727272727272728,0.0707070707070707,0.03282828282828283,0.0707070707070707,0.07828282828282829,0.015151515151515152,0.047979797979797977,0.045454545454545456,-0.7904040404040404,-1.0580808080808082,-0.7247474747474747,-0.98989898989899,-1.8535353535353536,-0.5681818181818182,-0.5580808080808081,-1.8333333333333333,-1.0,-1.1792929292929293,-1.0505050505050506,-0.5959595959595959,-0.6691919191919192,-1.1742424242424243,-1.6363636363636365,-0.351010101010101,-0.45454545454545453,-2.073232323232323,-0.9191919191919192,-0.9696969696969697
P21190,0.03611111111111111,0.022222222222222223,0.1,0.07222222222222222,0.008333333333333333,0.06111111111111111,0.06388888888888888,0.016666666666666666,0.03333333333333333,0.05277777777777778,0.05,0.06666666666666667,0.008333333333333333,0.07222222222222222,0.05555555555555555,0.13055555555555556,0.06944444444444445,0.002777777777777778,0.06388888888888888,0.013888888888888888,-0.7972222222222223,-0.9055555555555556,-0.09444444444444444,-0.5666666666666667,-2.066666666666667,-0.26944444444444443,-0.28055555555555556,-1.6333333333333333,-0.6,-1.5777777777777777,-1.5222222222222221,-0.46944444444444444,-0.9638888888888889,-1.3388888888888888,-1.325,0.08611111111111111,-0.3611111111111111,-2.325,-0.8777777777777778,-1.3694444444444445
P21264,0.0840630472854641,0.03852889667250438,0.047285464098073555,0.043782837127845885,0.01576182136602452,0.02626970227670753,0.0647985989492119,0.06304728546409807,0.024518388791593695,0.07705779334500876,0.09807355516637478,0.06830122591943957,0.028021015761821366,0.02626970227670753,0.05604203152364273,0.06830122591943957,0.0542907180385289,0.0017513134851138354,0.028021015761821366,0.08581436077057793,-0.3975481611208406,-1.0770577933450087,-0.8879159369527145,-1.253940455341506,-1.74430823117338,-0.7092819614711033,-0.7443082311733801,-1.5866900175131349,-1.3117338003502628,-0.8949211908931699,-0.9054290718038529,-0.6935201401050788,-0.5656742556917689,-1.5919439579684764,-1.36077057793345,-0.3397548161120841,-0.46409807355516636,-2.539404553415061,-1.3590192644483363,-0.5936952714535902
P21304,0.07291666666666667,0.03125,0.05555555555555555,0.10416666666666667,0.006944444444444444,0.020833333333333332,0.08854166666666667,0.0642361111111111,0.022569444444444444,0.046875,0.0763888888888889,0.06597222222222222,0.026041666666666668,0.029513888888888888,0.034722222222222224,0.09375,0.04861111111111111,0.015625,0.027777777777777776,0.06770833333333333,-0.53125,-1.046875,-0.5138888888888888,-0.5694444444444444,-1.9947916666666667,-0.5034722222222222,-0.3020833333333333,-1.3420138888888888,-1.1197916666666667,-1.3489583333333333,-1.3697916666666667,-0.5763888888888888,-0.8732638888888888,-1.6892361111111112,-1.4409722222222223,-0.11284722222222222,-0.484375,-2.4270833333333335,-1.4149305555555556,-1.0381944444444444
P21374,0.04680851063829787,0.07234042553191489,0.07234042553191489,0.05106382978723404,0.00425531914893617,0.059574468085106386,0.09787234042553192,0.03404255319148936,0.029787234042553193,0.0425531914893617,0.08085106382978724,0.11063829787234042,0.029787234042553193,0.02127659574468085,0.02553191489361702,0.06382978723404255,0.03829787234042553,0.029787234042553193,0.03404255319148936,0.05531914893617021,-0.774468085106383,-0.44680851063829785,-0.425531914893617,-0.9063829787234042,-2.2,-0.07234042553191489,-0.13617021276595745,-1.702127659574468,-0.825531914893617,-1.5063829787234042,-1.2893617021276595,-0.06808510638297872,-0.6978723404255319,-1.7276595744680852,-1.5659574468085107,-0.30638297872340425,-0.6170212765957447,-2.1702127659574466,-1.1914893617021276,-1.1829787234042553
P21524,0.08671171171171171,0.0472972972972973,0.04842342342342342,0.05630630630630631,0.015765765765765764,0.036036036036036036,0.06531531531531531,0.05630630630630631,0.019144144144144143,0.06644144144144144,0.0777027027027027,0.059684684684684686,0.030405405405405407,0.03490990990990991,0.04842342342342342,0.07207207207207207,0.06531531531531531,0.01126126126126126,0.04842342342342342,0.05405405405405406,-0.4605855855855856,-0.9842342342342343,-0.7815315315315315,-1.1058558558558558,-1.7894144144144144,-0.581081081081081,-0.6418918918918919,-1.5506756756756757,-1.1632882882882882,-1.1475225225225225,-1.1047297297297298,-0.670045045045045,-0.6790540540540541,-1.4887387387387387,-1.4234234234234233,-0.26914414414414417,-0.44481981981981983,-2.2826576576576576,-1.1644144144144144,-0.8547297297297297
P21651,0.05732484076433121,0.06687898089171974,0.054140127388535034,0.06687898089171974,0.006369426751592357,0.041401273885350316,0.09235668789808917,0.025477707006369428,0.03503184713375796,0.03503184713375796,0.10191082802547771,0.08280254777070063,0.03821656050955414,0.01592356687898089,0.025477707006369428,0.12101910828025478,0.07006369426751592,0.006369426751592357,0.009554140127388535,0.04777070063694268,-0.5159235668789809,-0.5382165605095541,-0.35987261146496813,-0.7388535031847133,-1.984076433121019,-0.15605095541401273,-0.13694267515923567,-1.6560509554140128,-0.9522292993630573,-1.375796178343949,-1.1687898089171975,-0.17197452229299362,-0.6337579617834395,-1.8535031847133758,-1.4363057324840764,0.054140127388535034,-0.27070063694267515,-2.589171974522293,-1.5222929936305734,-1.085987261146497
P21705,0.03529411764705882,0.06274509803921569,0.043137254901960784,0.06666666666666667,0.00784313725490196,0.054901960784313725,0.06666666666666667,0.03529411764705882,0.03529411764705882,0.054901960784313725,0.11372549019607843,0.07058823529411765,0.023529411764705882,0.03137254901960784,0.08235294117647059,0.12156862745098039,0.03529411764705882,0.00784313725490196,0.0196078431372549,0.03137254901960784,-0.6823529411764706,-0.7411764705882353,-0.5882352941176471,-0.8705882352941177,-2.0470588235294116,-0.2901960784313726,-0.3803921568627451,-1.7019607843137254,-0.9882352941176471,-1.388235294117647,-1.1803921568627451,-0.3843137254901961,-0.6901960784313725,-1.7411764705882353,-1.0823529411764705,-0.13725490196078433,-0.5647058823529412,-2.5294117647058822,-1.4,-1.1764705882352942
P21951,0.04635463546354635,0.043654365436543656,0.0576057605760576,0.061656165616561655,0.01485148514851485,0.0387038703870387,0.06975697569756975,0.047254725472547256,0.018001800180018002,0.06840684068406841,0.10171017101710171,0.08325832583258326,0.025202520252025202,0.050405040504050404,0.041404140414041404,0.07425742574257425,0.046804680468046804,0.013501350135013501,0.0405040504050405,0.05670567056705671,-0.7092709270927092,-0.9657965796579658,-0.7376237623762376,-1.0787578757875789,-1.901890189018902,-0.5544554455445545,-0.6026102610261026,-1.7317731773177318,-1.153015301530153,-1.0963096309630964,-1.0004500450045004,-0.5612061206120612,-0.6089108910891089,-1.373087308730873,-1.5598559855985599,-0.3712871287128713,-0.5796579657965797,-2.24977497749775,-1.117011701170117,-0.8865886588658866
P22209,0.029885057471264367,0.059770114942528735,0.03908045977011494,0.04367816091954023,0.013793103448275862,0.06436781609195402,0.08505747126436781,0.052873563218390804,0.03218390804597701,0.06896551724137931,0.08735632183908046,0.08045977011494253,0.022988505747126436,0.03218390804597701,0.04597701149425287,0.06666666666666667,0.03908045977011494,0.009195402298850575,0.06896551724137931,0.05747126436781609,-0.7885057471264367,-0.7770114942528735,-0.774712643678161,-1.1379310344827587,-2.0344827586206895,-0.3103448275862069,-0.4459770114942529,-1.7701149425287357,-0.871264367816092,-1.2298850574712643,-1.1149425287356323,-0.4482758620689655,-0.6459770114942529,-1.439080459770115,-1.4988505747126437,-0.4574712643678161,-0.7011494252873564,-2.1908045977011494,-0.8942528735632184,-0.9632183908045977
P22216,0.04506699147381242,0.04263093788063337,0.06211936662606577,0.05968331303288672,0.012180267965895249,0.06942752740560293,0.06090133982947625,0.0682095006090134,0.018270401948842874,0.07551766138855055,0.0828258221680877,0.08038976857490865,0.023142509135200974,0.0389768574908648,0.03288672350791717,0.08891595615103533,0.05115712545676005,0.007308160779537149,0.020706455542021926,0.05968331303288672,-0.6199756394640682,-0.8745432399512789,-0.5408038976857491,-0.9354445797807551,-1.9500609013398296,-0.37393422655298414,-0.4920828258221681,-1.4738124238733252,-1.164433617539586,-1.2107186358099877,-1.1522533495736906,-0.4774665042630938,-0.6638246041412911,-1.6309378806333739,-1.5322777101096223,-0.19244823386114496,-0.5018270401948843,-2.4445797807551766,-1.366626065773447,-0.9403166869671132
P22804,0.056338028169014086,0.056338028169014086,0.04225352112676056,0.06338028169014084,0.0,0.056338028169014086,0.035211267605633804,0.09859154929577464,0.007042253521126761,0.056338028169014086,0.09154929577464789,0.04929577464788732,0.056338028169014086,0.056338028169014086,0.007042253521126761,0.1267605633802817,0.07042253521126761,0.02112676056338028,0.014084507042253521,0.035211267605633804,-0.4859154929577465,-0.9295774647887324,-0.6197183098591549,-1.0704225352112675,-1.9014084507042253,-0.5211267605633803,-0.7535211267605634,-1.1549295774647887,-1.3380281690140845,-1.232394366197183,-1.056338028169014,-0.6901408450704225,-0.5070422535211268,-1.380281690140845,-1.795774647887324,-0.02112676056338028,-0.3873239436619718,-2.084507042253521,-1.352112676056338,-1.028169014084507
P23337,0.06638418079096045,0.05508474576271186,0.06073446327683616,0.07062146892655367,0.009887005649717515,0.025423728813559324,0.06779661016949153,0.06073446327683616,0.029661016949152543,0.0480225988700565,0.1016949152542373,0.05790960451977401,0.018361581920903956,0.0480225988700565,0.04096045197740113,0.052259887005649715,0.05367231638418079,0.011299435028248588,0.043785310734463276,0.07768361581920905,-0.6370056497175142,-0.9943502824858758,-0.7231638418079096,-1.055084745762712,-1.9435028248587571,-0.6497175141242938,-0.6398305084745762,-1.5819209039548023,-1.057909604519774,-1.1327683615819208,-1.0833333333333333,-0.7062146892655368,-0.7217514124293786,-1.3997175141242937,-1.5593220338983051,-0.4364406779661017,-0.5621468926553672,-2.285310734463277,-1.1031073446327684,-0.8799435028248588
P23542,0.10047846889952153,0.03110047846889952,0.04784688995215311,0.04784688995215311,0.009569377990430622,0.045454545454545456,0.045454545454545456,0.06698564593301436,0.03110047846889952,0.05741626794258373,0.09090909090909091,0.06937799043062201,0.019138755980861243,0.045454545454545456,0.0430622009569378,0.06937799043062201,0.0645933014354067,0.014354066985645933,0.03349282296650718,0.06698564593301436,-0.38516746411483255,-1.0598086124401913,-0.8253588516746412,-1.229665071770335,-1.799043062200957,-0.638755980861244,-0.7607655502392344,-1.4521531100478469,-1.1602870813397128,-1.1100478468899522,-1.0454545454545454,-0.7033492822966507,-0.6698564593301436,-1.4330143540669857,-1.4808612440191387,-0.2751196172248804,-0.44976076555023925,-2.2416267942583734,-1.167464114832536,-0.8014354066985646
P23561,0.05299860529986053,0.040446304044630406,0.07252440725244072,0.05718270571827057,0.011157601115760111,0.04741980474198047,0.06834030683403068,0.05439330543933055,0.029288702928870293,0.07531380753138076,0.10320781032078104,0.08089260808926081,0.02092050209205021,0.03626220362622036,0.03486750348675035,0.07810320781032078,0.05578800557880056,0.00697350069735007,0.02092050209205021,0.05299860529986053,-0.6345885634588564,-0.8856345885634589,-0.5244072524407253,-0.9832635983263598,-1.9386331938633194,-0.47280334728033474,-0.5202231520223152,-1.599721059972106,-1.0836820083682008,-1.1408647140864714,-1.0516039051603905,-0.502092050209205,-0.6527196652719666,-1.594142259414226,-1.5425383542538353,-0.2412831241283124,-0.4783821478382148,-2.474198047419805,-1.3319386331938634,-0.9079497907949791
P24279,0.07929969104016478,0.0690010298661174,0.05046343975283213,0.08032955715756952,0.0020597322348094747,0.032955715756951595,0.07003089598352215,0.0607621009268795,0.02265705458290422,0.05870236869207003,0.09268795056642637,0.04840370751802266,0.016477857878475798,0.032955715756951595,0.04943357363542739,0.07723995880535531,0.06591143151390319,0.003089598352214212,0.02265705458290422,0.06488156539649846,-0.470648815653965,-0.8609680741503605,-0.6189495365602472,-0.8475798146240988,-1.9969104016477859,-0.5190525231719877,-0.46961894953656025,-1.4613800205973224,-1.1668383110195675,-1.21524201853759,-1.1874356333676621,-0.6035015447991761,-0.7847579814624099,-1.701338825952626,-1.349124613800206,-0.20803295571575695,-0.39752832131822863,-2.581874356333677,-1.4531410916580845,-0.9279093717816684
P24719,0.03822937625754527,0.04225352112676056,0.05835010060362173,0.07243460764587525,0.028169014084507043,0.03822937625754527,0.052313883299798795,0.052313883299798795,0.03219315895372234,0.07645875251509054,0.11670020120724346,0.08853118712273642,0.01609657947686117,0.03621730382293763,0.03621730382293763,0.06237424547283702,0.04225352112676056,0.012072434607645875,0.03420523138832998,0.06438631790744467,-0.7545271629778671,-1.0080482897384306,-0.7464788732394366,-1.096579476861167,-1.7605633802816902,-0.6378269617706237,-0.716297786720322,-1.756539235412475,-1.1267605633802817,-1.0261569416498995,-0.9496981891348089,-0.613682092555332,-0.6257545271629779,-1.4647887323943662,-1.6317907444668007,-0.45875251509054327,-0.6277665995975855,-2.3400402414486923,-1.1830985915492958,-0.8430583501006036
P25293,0.047961630695443645,0.03357314148681055,0.045563549160671464,0.09352517985611511,0.009592326139088728,0.0671462829736211,0.14388489208633093,0.050359712230215826,0.009592326139088728,0.05755395683453238,0.09352517985611511,0.0671462829736211,0.009592326139088728,0.047961630695443645,0.05275779376498801,0.05515587529976019,0.04316546762589928,0.009592326139088728,0.023980815347721823,0.03836930455635491,-0.7482014388489209,-0.9040767386091128,-0.6163069544364509,-0.46522781774580335,-2.20863309352518,-0.17266187050359713,0.05515587529976019,-1.6378896882494005,-1.1175059952038369,-1.4628297362110312,-1.3741007194244603,-0.4292565947242206,-0.894484412470024,-1.7050359712230216,-1.3069544364508394,-0.30935251798561153,-0.6402877697841727,-2.4532374100719423,-1.3980815347721822,-1.1510791366906474
P25342,0.049689440993788817,0.06832298136645963,0.055900621118012424,0.055900621118012424,0.003105590062111801,0.040372670807453416,0.09006211180124224,0.043478260869565216,0.024844720496894408,0.09316770186335403,0.09316770186335403,0.049689440993788817,0.012422360248447204,0.049689440993788817,0.027950310559006212,0.07453416149068323,0.07453416149068323,0.006211180124223602,0.031055900621118012,0.055900621118012424,-0.65527950310559,-0.8571428571428571,-0.6614906832298136,-1.0186335403726707,-2.0093167701863353,-0.5186335403726708,-0.484472049689441,-1.7608695652173914,-1.0776397515527951,-1.0,-0.9906832298136646,-0.6335403726708074,-0.65527950310559,-1.4099378881987579,-1.6459627329192548,-0.32298136645962733,-0.39751552795031053,-2.3944099378881987,-1.1801242236024845,-0.8043478260869565
P25367,0.07407407407407407,0.014814814814814815,0.12345679012345678,0.019753086419753086,0.0,0.19012345679012346,0.019753086419753086,0.1506172839506173,0.01728395061728395,0.009876543209876543,0.044444444444444446,0.01728395061728395,0.0345679012345679,0.0345679012345679,0.007407407407407408,0.1654320987654321,0.024691358024691357,0.0,0.03950617283950617,0.012345679012345678,-0.345679012345679,-0.6938271604938272,0.32839506172839505,-0.6839506172839506,-2.140740740740741,0.32839506172839505,-0.3111111111111111,-0.27901234567901234,-0.6790123456790124,-2.1012345679012348,-1.819753086419753,-0.47901234567901235,-0.8987654320987655,-1.8691358024691358,-1.5851851851851853,0.528395061728395,-0.5530864197530864,-2.3185185185185184,-1.288888888888889,-1.693827160493827
P25454,0.0975,0.05,0.0325,0.0675,0.02,0.0525,0.075,0.1025,0.0175,0.04,0.095,0.0425,0.0325,0.035,0.0325,0.0675,0.0475,0.0,0.02,0.0725,-0.3075,-0.995,-0.805,-0.99,-1.7775,-0.5175,-0.565,-1.1675,-1.3075,-1.24,-1.165,-0.72,-0.705,-1.6825,-1.5025,-0.23,-0.5525,-2.4925,-1.485,-0.8875
P25638,0.08108108108108109,0.04504504504504504,0.02702702702702703,0.02702702702702703,0.018018018018018018,0.12612612612612611,0.08108108108108109,0.07207207207207207,0.018018018018018018,0.04504504504504504,0.09009009009009009,0.05405405405405406,0.02702702702702703,0.018018018018018018,0.036036036036036036,0.06306306306306306,0.036036036036036036,0.0,0.06306306306306306,0.07207207207207207,-0.42342342342342343,-0.7837837837837838,-0.8738738738738738,-1.2072072072072073,-1.8738738738738738,-0.036036036036036036,-0.38738738738738737,-1.5225225225225225,-1.045045045045045,-1.2522522522522523,-1.0810810810810811,-0.4954954954954955,-0.5495495495495496,-1.6306306306306306,-1.4594594594594594,-0.32432432432432434,-0.6486486486486487,-2.2882882882882885,-1.045045045045045,-0.8468468468468469
P26343,0.026022304832713755,0.03717472118959108,0.07806691449814127,0.04460966542750929,0.02973977695167286,0.026022304832713755,0.07063197026022305,0.04460966542750929,0.03345724907063197,0.04460966542750929,0.12267657992565056,0.10037174721189591,0.007434944237918215,0.026022304832713755,0.07063197026022305,0.08921933085501858,0.07806691449814127,0.007434944237918215,0.01486988847583643,0.048327137546468404,-0.7026022304832714,-0.8513011152416357,-0.44609665427509293,-1.0,-1.8066914498141264,-0.5278810408921933,-0.5315985130111525,-1.6728624535315986,-1.0892193308550187,-1.3345724907063197,-1.141263940520446,-0.37174721189591076,-0.7806691449814126,-1.8066914498141264,-1.20817843866171,-0.17472118959107807,-0.3271375464684015,-2.5613382899628254,-1.483271375464684,-1.063197026022305
P27515,0.06387225548902195,0.04790419161676647,0.06387225548902195,0.06986027944111776,0.015968063872255488,0.02594810379241517,0.043912175648702596,0.0499001996007984,0.023952095808383235,0.10179640718562874,0.09580838323353294,0.06786427145708583,0.023952095808383235,0.03992015968063872,0.043912175648702596,0.06986027944111776,0.043912175648702596,0.00998003992015968,0.027944111776447105,0.06986027944111776,-0.6067864271457086,-1.0878243512974053,-0.782435129740519,-1.1437125748502994,-1.7724550898203593,-0.7704590818363274,-0.8223552894211577,-1.7085828343313374,-1.2574850299401197,-0.8502994011976048,-0.8962075848303394,-0.7544910179640718,-0.5748502994011976,-1.4311377245508983,-1.560878243512974,-0.405189620758483,-0.5508982035928144,-2.435129740518962,-1.2594810379241517,-0.6786427145708582
P27895,0.04,0.034,0.109,0.053,0.009,0.052,0.072,0.036,0.019,0.071,0.091,0.095,0.033,0.031,0.019,0.101,0.069,0.001,0.022,0.043,-0.677,-0.738,-0.14,-0.81,-1.974,-0.292,-0.349,-1.621,-1.013,-1.22,-1.104,-0.286,-0.615,-1.676,-1.604,-0.011,-0.301,-2.591,-1.385,-0.987
P28743,0.04107648725212465,0.0764872521246459,0.06373937677053824,0.05240793201133145,0.0084985835694051,0.029745042492917848,0.06232294617563739,0.060906515580736544,0.0169971671388102,0.06515580736543909,0.08781869688385269,0.06515580736543909,0.026912181303116147,0.0226628895184136,0.036827195467422094,0.14447592067988668,0.06940509915014165,0.0028328611898017,0.0226628895184136,0.043909348441926344,-0.5070821529745042,-0.6898016997167139,-0.35410764872521244,-0.9135977337110481,-1.9135977337110481,-0.4348441926345609,-0.48441926345609065,-1.3923512747875355,-1.131728045325779,-1.2988668555240792,-1.1926345609065157,-0.40084985835694054,-0.7110481586402266,-1.7606232294617563,-1.4390934844192635,0.09348441926345609,-0.2719546742209632,-2.582152974504249,-1.5,-1.065155807365439
P28795,0.045351473922902494,0.03854875283446712,0.06802721088435375,0.04308390022675737,0.009070294784580499,0.07482993197278912,0.06802721088435375,0.027210884353741496,0.013605442176870748,0.061224489795918366,0.12244897959183673,0.06349206349206349,0.022675736961451247,0.045351473922902494,0.02040816326530612,0.10884353741496598,0.07029478458049887,0.02040816326530612,0.024943310657596373,0.05215419501133787,-0.6326530612244898,-0.8934240362811792,-0.6054421768707483,-1.1179138321995465,-1.8571428571428572,-0.3401360544217687,-0.5351473922902494,-1.816326530612245,-1.18140589569161,-1.038548752834467,-0.8435374149659864,-0.5396825396825397,-0.4603174603174603,-1.3968253968253967,-1.691609977324263,-0.15873015873015872,-0.32653061224489793,-2.17687074829932,-1.1700680272108843,-0.8458049886621315
P29340,0.03825136612021858,0.0546448087431694,0.07103825136612021,0.060109289617486336,0.03278688524590164,0.01639344262295082,0.07103825136612021,0.03278688524590164,0.0273224043715847,0.1092896174863388,0.08196721311475409,0.04371584699453552,0.0273224043715847,0.02185792349726776,0.07650273224043716,0.07650273224043716,0.03825136612021858,0.0273224043715847,0.03825136612021858,0.0546448087431694,-0.7704918032786885,-1.1202185792349726,-0.7814207650273224,-1.1202185792349726,-1.6994535519125684,-0.7540983606557377,-0.7595628415300546,-1.8633879781420766,-1.1530054644808743,-0.9836065573770492,-1.0382513661202186,-0.8415300546448088,-0.6557377049180327,-1.53551912568306,-1.3278688524590163,-0.45901639344262296,-0.6010928961748634,-2.262295081967213,-1.2076502732240437,-0.825136612021858
P29469,0.059907834101382486,0.08870967741935484,0.04953917050691244,0.07949308755760369,0.010368663594470046,0.03686635944700461,0.09907834101382489,0.052995391705069124,0.019585253456221197,0.06336405529953917,0.08410138248847926,0.04377880184331797,0.020737327188940093,0.02880184331797235,0.041474654377880185,0.07834101382488479,0.041474654377880185,0.0034562211981566822,0.029953917050691243,0.06797235023041474,-0.5852534562211982,-0.7304147465437788,-0.6071428571428571,-0.7857142857142857,-2.02073732718894,-0.3824884792626728,-0.29493087557603687,-1.5737327188940091,-1.0817972350230414,-1.25,-1.2304147465437787,-0.5184331797235023,-0.7695852534562212,-1.7188940092165899,-1.4400921658986174,-0.27534562211981567,-0.5518433179723502,-2.5702764976958523,-1.3951612903225807,-0.9827188940092166
P30771,0.0607621009268795,0.05046343975283213,0.05870236869207003,0.05664263645726056,0.01956745623069001,0.05149330587023687,0.06797116374871266,0.05458290422245108,0.02265705458290422,0.055612770339855816,0.101956745623069,0.061791967044284246,0.014418125643666324,0.04016477857878476,0.04531410916580844,0.082389289392379,0.046343975283213185,0.013388259526261586,0.028836251287332648,0.06694129763130793,-0.5777548918640577,-0.9382080329557158,-0.6910401647785788,-1.0566426364572605,-1.8331616889804325,-0.49536560247167866,-0.5756951596292482,-1.588053553038105,-1.145211122554068,-1.1822863027806385,-1.0885684860968075,-0.607621009268795,-0.6879505664263645,-1.553038105046344,-1.477857878475798,-0.2842430484037075,-0.5303810504634398,-2.3429454170957777,-1.2615859938208034,-0.9248197734294542
P30822,0.05904059040590406,0.03505535055350553,0.05166051660516605,0.0544280442804428,0.01107011070110701,0.058118081180811805,0.07380073800738007,0.03136531365313653,0.01845018450184502,0.07380073800738007,0.11900369003690037,0.06642066420664207,0.027675276752767528,0.048892988929889296,0.03228782287822878,0.06642066420664207,0.05627306273062731,0.01107011070110701,0.03044280442804428,0.07472324723247233,-0.6245387453874539,-1.03690036900369,-0.8763837638376384,-1.187269372693727,-1.8376383763837638,-0.5119926199261993,-0.6180811808118081,-1.918819188191882,-1.2472324723247232,-0.8339483394833949,-0.7490774907749077,-0.6595940959409594,-0.42066420664206644,-1.3247232472324724,-1.6291512915129152,-0.4188191881918819,-0.4843173431734317,-2.2859778597785976,-1.128228782287823,-0.6236162361623616
P31111,0.03428571428571429,0.03428571428571429,0.08342857142857144,0.054857142857142854,0.008,0.06514285714285714,0.112,0.027428571428571427,0.02057142857142857,0.053714285714285714,0.096,0.12571428571428572,0.018285714285714287,0.021714285714285714,0.019428571428571427,0.10514285714285715,0.061714285714285715,0.0,0.014857142857142857,0.04342857142857143,-0.6731428571428572,-0.5371428571428571,-0.16114285714285714,-0.6194285714285714,-2.12,-0.004571428571428572,0.056,-1.6857142857142857,-0.9554285714285714,-1.4297142857142857,-1.2434285714285713,0.05142857142857143,-0.7211428571428572,-1.8937142857142857,-1.4822857142857142,0.04,-0.34285714285714286,-2.681142857142857,-1.5005714285714287,-1.112
P31539,0.08480176211453745,0.05947136563876652,0.040748898678414094,0.07488986784140969,0.006607929515418502,0.05726872246696035,0.09030837004405286,0.05286343612334802,0.016519823788546256,0.07599118942731277,0.10682819383259912,0.07709251101321586,0.016519823788546256,0.028634361233480177,0.03303964757709251,0.05616740088105727,0.04405286343612335,0.0,0.024229074889867842,0.053964757709251104,-0.4911894273127753,-0.7720264317180616,-0.7411894273127754,-0.8865638766519823,-1.9966960352422907,-0.3436123348017621,-0.3248898678414097,-1.6343612334801763,-1.2081497797356828,-1.1354625550660793,-1.0462555066079295,-0.42731277533039647,-0.670704845814978,-1.699339207048458,-1.4889867841409692,-0.31718061674008813,-0.566079295154185,-2.595814977973568,-1.422907488986784,-0.8535242290748899
P32263,0.0979020979020979,0.006993006993006993,0.03146853146853147,0.024475524475524476,0.024475524475524476,0.038461538461538464,0.08041958041958042,0.09090909090909091,0.013986013986013986,0.045454545454545456,0.0979020979020979,0.07692307692307693,0.03146853146853147,0.013986013986013986,0.04195804195804196,0.08041958041958042,0.06293706293706294,0.0034965034965034965,0.03146853146853147,0.1048951048951049,-0.1888111888111888,-1.1958041958041958,-0.972027972027972,-1.3181818181818181,-1.597902097902098,-0.6433566433566433,-0.6958041958041958,-1.3216783216783217,-1.465034965034965,-0.972027972027972,-0.9440559440559441,-0.6678321678321678,-0.5629370629370629,-1.6853146853146854,-1.3951048951048952,-0.20279720279720279,-0.3811188811188811,-2.444055944055944,-1.416083916083916,-0.534965034965035
P32318,0.09815950920245399,0.027607361963190184,0.03374233128834356,0.06134969325153374,0.018404907975460124,0.03067484662576687,0.046012269938650305,0.08588957055214724,0.03680981595092025,0.046012269938650305,0.08282208588957055,0.05521472392638037,0.03374233128834356,0.03987730061349693,0.03680981595092025,0.07668711656441718,0.06441717791411043,0.009202453987730062,0.02147239263803681,0.0950920245398773,-0.30368098159509205,-1.196319018404908,-0.8865030674846626,-1.1687116564417177,-1.6625766871165644,-0.7515337423312883,-0.8098159509202454,-1.3006134969325154,-1.2453987730061349,-1.0429447852760736,-1.0644171779141105,-0.8343558282208589,-0.6441717791411042,-1.5030674846625767,-1.5030674846625767,-0.24846625766871167,-0.4263803680981595,-2.3496932515337425,-1.3190184049079754,-0.6993865030674846
P32361,0.03587443946188341,0.053811659192825115,0.06188340807174888,0.06457399103139014,0.012556053811659192,0.029596412556053813,0.06457399103139014,0.0484304932735426,0.02242152466367713,0.07174887892376682,0.11121076233183856,0.06457399103139014,0.023318385650224215,0.04663677130044843,0.0484304932735426,0.10224215246636771,0.04394618834080718,0.007174887892376682,0.03497757847533632,0.05201793721973094,-0.7040358744394619,-0.9632286995515695,-0.6358744394618834,-1.0260089686098655,-1.9085201793721973,-0.5982062780269058,-0.6304932735426009,-1.6834080717488789,-1.1237668161434977,-1.0878923766816144,-0.9991031390134529,-0.62152466367713,-0.6260089686098654,-1.4278026905829597,-1.4968609865470852,-0.2645739910313901,-0.5417040358744395,-2.398206278026906,-1.2071748878923767,-0.9300448430493273
P32389,0.050595238095238096,0.03422619047619048,0.13541666666666666,0.0744047619047619,0.0,0.03720238095238095,0.06398809523809523,0.044642857142857144,0.04017857142857143,0.052083333333333336,0.07291666666666667,0.06547619047619048,0.008928571428571428,0.03422619047619048,0.044642857142857144,0.12351190476190477,0.06398809523809523,0.001488095238095238,0.013392857142857142,0.03869047619047619,-0.6532738095238095,-0.7872023809523809,0.21577380952380953,-0.4583333333333333,-2.142857142857143,-0.3333333333333333,-0.24404761904761904,-1.2946428571428572,-0.7336309523809523,-1.5654761904761905,-1.5282738095238095,-0.38839285714285715,-0.9970238095238095,-1.8526785714285714,-1.3288690476190477,0.18898809523809523,-0.27827380952380953,-2.7529761904761907,-1.4955357142857142,-1.3154761904761905
P32458,0.02650602409638554,0.0746987951807229,0.05783132530120482,0.06746987951807229,0.007228915662650603,0.03614457831325301,0.10843373493975904,0.05542168674698795,0.01927710843373494,0.0891566265060241,0.10843373493975904,0.04819277108433735,0.016867469879518072,0.02891566265060241,0.03132530120481928,0.0819277108433735,0.06506024096385542,0.004819277108433735,0.02891566265060241,0.043373493975903614,-0.744578313253012,-0.7879518072289157,-0.5421686746987951,-0.8385542168674699,-2.0698795180722893,-0.43132530120481927,-0.3373493975903614,-1.6771084337349398,-1.1012048192771084,-1.1373493975903615,-1.072289156626506,-0.5542168674698795,-0.7060240963855422,-1.6289156626506025,-1.5855421686746989,-0.28433734939759037,-0.45542168674698796,-2.503614457831325,-1.3590361445783132,-0.9493975903614458
P32459,0.05128205128205128,0.03076923076923077,0.046153846153846156,0.041025641025641026,0.02564102564102564,0.046153846153846156,0.08717948717948718,0.05641025641025641,0.03076923076923077,0.06153846153846154,0.08205128205128205,0.05641025641025641,0.020512820512820513,0.035897435897435895,0.05128205128205128,0.07692307692307693,0.07179487179487179,0.010256410256410256,0.02564102564102564,0.09230769230769231,-0.5435897435897435,-1.0974358974358975,-0.8051282051282052,-1.117948717948718,-1.7435897435897436,-0.558974358974359,-0.5692307692307692,-1.646153846153846,-1.1743589743589744,-1.0461538461538462,-1.0666666666666667,-0.7025641025641025,-0.6512820512820513,-1.5692307692307692,-1.3948717948717948,-0.3076923076923077,-0.38461538461538464,-2.3692307692307693,-1.2717948717948717,-0.7128205128205128
P32468,0.0687960687960688,0.07125307125307126,0.04914004914004914,0.05405405405405406,0.004914004914004914,0.06388206388206388,0.08845208845208845,0.051597051597051594,0.02702702702702703,0.06142506142506143,0.08845208845208845,0.07371007371007371,0.014742014742014743,0.03931203931203931,0.04914004914004914,0.03931203931203931,0.06388206388206388,0.007371007371007371,0.02457002457002457,0.05896805896805897,-0.6068796068796068,-0.6707616707616708,-0.687960687960688,-0.9901719901719902,-2.098280098280098,-0.29484029484029484,-0.33906633906633904,-1.660933660933661,-1.0442260442260443,-1.285012285012285,-1.171990171990172,-0.4004914004914005,-0.7272727272727273,-1.6756756756756757,-1.3783783783783783,-0.3955773955773956,-0.5110565110565111,-2.43980343980344,-1.3120393120393121,-0.9557739557739557
P32479,0.04642857142857143,0.047619047619047616,0.05476190476190476,0.075,0.015476190476190477,0.025,0.05476190476190476,0.05714285714285714,0.023809523809523808,0.07738095238095238,0.09404761904761905,0.07857142857142857,0.011904761904761904,0.03333333333333333,0.04880952380952381,0.0988095238095238,0.058333333333333334,0.01904761904761905,0.016666666666666666,0.0630952380952381,-0.6178571428571429,-1.0035714285714286,-0.6476190476190476,-0.9464285714285714,-1.8535714285714286,-0.6547619047619048,-0.6321428571428571,-1.5511904761904762,-1.2404761904761905,-1.1464285714285714,-1.1321428571428571,-0.594047619047619,-0.7535714285714286,-1.6297619047619047,-1.4321428571428572,-0.21904761904761905,-0.4380952380952381,-2.3976190476190475,-1.4214285714285715,-0.919047619047619
P32504,0.03138075313807531,0.04184100418410042,0.06380753138075314,0.06903765690376569,0.011506276150627616,0.0502092050209205,0.08054393305439331,0.030334728033472803,0.02615062761506276,0.06171548117154812,0.10146443514644352,0.08786610878661087,0.016736401673640166,0.0596234309623431,0.04811715481171548,0.08263598326359832,0.05753138075313807,0.010460251046025104,0.0397489539748954,0.029288702928870293,-0.8284518828451883,-0.8483263598326359,-0.5439330543933054,-0.8608786610878661,-2.0397489539748954,-0.37656903765690375,-0.38598326359832635,-1.8158995815899581,-0.9476987447698745,-1.3064853556485356,-1.147489539748954,-0.42677824267782427,-0.7207112970711297,-1.397489539748954,-1.4623430962343096,-0.27615062761506276,-0.5313807531380753,-2.286610878661088,-1.0857740585774058,-1.1140167364016735
P32505,0.07809523809523809,0.05142857142857143,0.06857142857142857,0.03238095238095238,0.04,0.11619047619047619,0.06476190476190476,0.05904761904761905,0.022857142857142857,0.0380952380952381,0.05904761904761905,0.05904761904761905,0.02095238095238095,0.0380952380952381,0.09523809523809523,0.049523809523809526,0.045714285714285714,0.0019047619047619048,0.011428571428571429,0.047619047619047616,-0.49523809523809526,-0.7142857142857143,-0.5714285714285714,-0.9809523809523809,-1.7771428571428571,-0.09333333333333334,-0.38857142857142857,-1.4552380952380952,-1.0609523809523809,-1.6133333333333333,-1.4495238095238094,-0.4247619047619048,-0.8057142857142857,-1.9676190476190476,-0.9257142857142857,-0.2342857142857143,-0.5657142857142857,-2.5752380952380953,-1.5123809523809524,-1.1828571428571428
P32523,0.061630218687872766,0.033797216699801194,0.055666003976143144,0.073558648111332,0.017892644135188866,0.03578528827037773,0.06560636182902585,0.041749502982107355,0.009940357852882704,0.0636182902584493,0.09940357852882704,0.07554671968190854,0.019880715705765408,0.02982107355864811,0.0437375745526839,0.0874751491053678,0.073558648111332,0.011928429423459244,0.0437375745526839,0.055666003976143144,-0.5646123260437376,-1.0278330019880715,-0.679920477137177,-0.9443339960238568,-1.7813121272365806,-0.5546719681908548,-0.5646123260437376,-1.6759443339960238,-1.2584493041749503,-1.1153081510934393,-1.05168986083499,-0.5864811133200796,-0.68389662027833,-1.5447316103379722,-1.4413518886679921,-0.2047713717693837,-0.34791252485089463,-2.349900596421471,-1.2544731610337971,-0.8548707753479126
P32618,0.056485355648535567,0.028242677824267783,0.1098326359832636,0.04602510460251046,0.005230125523012552,0.043933054393305436,0.051255230125523014,0.02092050209205021,0.02301255230125523,0.056485355648535567,0.10251046025104603,0.0700836820083682,0.01778242677824268,0.02510460251046025,0.058577405857740586,0.1506276150627615,0.07217573221757322,0.010460251046025104,0.02301255230125523,0.028242677824267783,-0.5376569037656904,-0.850418410041841,-0.12761506276150628,-0.8451882845188284,-1.9048117154811715,-0.37447698744769875,-0.46548117154811713,-1.5700836820083681,-1.002092050209205,-1.3326359832635983,-1.1725941422594142,-0.4131799163179916,-0.7238493723849372,-1.7353556485355648,-1.2405857740585775,0.20606694560669456,-0.17364016736401675,-2.549163179916318,-1.4100418410041842,-1.1150627615062763
P32628,0.12060301507537688,0.035175879396984924,0.035175879396984924,0.05527638190954774,0.010050251256281407,0.06281407035175879,0.11557788944723618,0.07537688442211055,0.005025125628140704,0.03768844221105527,0.0728643216080402,0.03768844221105527,0.02512562814070352,0.02763819095477387,0.06030150753768844,0.0728643216080402,0.07537688442211055,0.0,0.01507537688442211,0.06030150753768844,-0.16834170854271358,-0.9447236180904522,-0.7236180904522613,-0.7864321608040201,-1.9020100502512562,-0.2964824120603015,-0.21105527638190955,-1.243718592964824,-1.3442211055276383,-1.3869346733668342,-1.3316582914572865,-0.5778894472361809,-0.821608040201005,-1.9045226130653266,-1.1080402010050252,-0.04020100502512563,-0.30904522613065327,-2.613065326633166,-1.6381909547738693,-0.9170854271356784
P32639,0.053629218677762366,0.039297272306981046,0.06241331484049931,0.05917706888580675,0.011095700416088766,0.036523347202958856,0.08136846971798428,0.0425335182616736,0.02034211742949607,0.07165973185390662,0.10725843735552473,0.07258437355524734,0.018955154877484975,0.04299583911234397,0.039297272306981046,0.08183079056865465,0.050392972723069814,0.012020342117429497,0.03374942209893666,0.06287563569116968,-0.6440129449838188,-0.9926028663892742,-0.691169671752196,-1.0319001386962552,-1.912621359223301,-0.5464632454923717,-0.5349052242256126,-1.7323162274618584,-1.1562644475265835,-1.042995839112344,-0.9773462783171522,-0.588534442903375,-0.6227461858529819,-1.4447526583448913,-1.5446139620896902,-0.3083680073971336,-0.5067036523347203,-2.3458159963014333,-1.1955617198335644,-0.8257050392972723
P32796,0.04776119402985075,0.03731343283582089,0.06567164179104477,0.058208955223880594,0.010447761194029851,0.050746268656716415,0.05373134328358209,0.04626865671641791,0.029850746268656716,0.056716417910447764,0.09104477611940298,0.08059701492537313,0.026865671641791045,0.05522388059701493,0.05223880597014925,0.08358208955223881,0.049253731343283584,0.016417910447761194,0.04328358208955224,0.04477611940298507,-0.7283582089552239,-0.9417910447761194,-0.6149253731343284,-1.0477611940298508,-1.9656716417910447,-0.47761194029850745,-0.6044776119402985,-1.653731343283582,-0.9731343283582089,-1.2671641791044777,-1.1343283582089552,-0.5492537313432836,-0.6671641791044776,-1.3656716417910448,-1.4507462686567165,-0.291044776119403,-0.5701492537313433,-2.1776119402985072,-1.035820895522388,-1.044776119402985
P32797,0.05194805194805195,0.048701298701298704,0.05303030303030303,0.06277056277056277,0.021645021645021644,0.046536796536796536,0.06385281385281386,0.03354978354978355,0.022727272727272728,0.06926406926406926,0.09632034632034632,0.0670995670995671,0.015151515151515152,0.05519480519480519,0.050865800865800864,0.10497835497835498,0.05194805194805195,0.004329004329004329,0.030303030303030304,0.049783549783549784,-0.6060606060606061,-0.948051948051948,-0.6818181818181818,-0.9967532467532467,-1.7835497835497836,-0.5151515151515151,-0.5692640692640693,-1.7521645021645023,-1.121212121212121,-1.1255411255411256,-1.051948051948052,-0.5833333333333334,-0.6634199134199135,-1.4372294372294372,-1.4296536796536796,-0.19696969696969696,-0.4696969696969697,-2.430735930735931,-1.2132034632034632,-0.9307359307359307
P32829,0.049132947976878616,0.049132947976878616,0.06358381502890173,0.08092485549132948,0.010115606936416185,0.028901734104046242,0.07225433526011561,0.05346820809248555,0.02601156069364162,0.05491329479768786,0.08092485549132948,0.07803468208092486,0.023121387283236993,0.04190751445086705,0.05491329479768786,0.07658959537572255,0.06502890173410404,0.004335260115606936,0.01878612716763006,0.06791907514450866,-0.6445086705202312,-0.8988439306358381,-0.5115606936416185,-0.7716763005780347,-2.0014450867052025,-0.5057803468208093,-0.4234104046242775,-1.546242774566474,-1.1098265895953756,-1.2760115606936415,-1.2572254335260116,-0.48554913294797686,-0.7875722543352601,-1.6820809248554913,-1.3121387283236994,-0.22109826589595374,-0.42052023121387283,-2.566473988439306,-1.4335260115606936,-0.9841040462427746
P32849,0.04020530367835757,0.05474764756201882,0.05218135158254919,0.06757912745936698,0.013686911890504704,0.041916167664670656,0.08126603934987169,0.041916167664670656,0.017964071856287425,0.05645851154833191,0.1086398631308811,0.08212147134302823,0.023952095808383235,0.04362703165098375,0.03421727972626176,0.09238665526090675,0.05902480752780154,0.011120615911035072,0.023952095808383235,0.05303678357570573,-0.6740804106073567,-0.8220701454234388,-0.6244653550042771,-0.9281437125748503,-1.9307100085543198,-0.41916167664670656,-0.42600513259195893,-1.7159965782720275,-1.1582549187339606,-1.1924721984602225,-1.0479041916167664,-0.4294268605645851,-0.630453378956373,-1.5389221556886228,-1.5397775876817792,-0.22840034217279725,-0.4542343883661249,-2.3729683490162534,-1.309666381522669,-0.9674935842600513
P32861,0.04609218436873747,0.052104208416833664,0.06613226452905811,0.06212424849699399,0.008016032064128256,0.02404809619238477,0.06212424849699399,0.06012024048096192,0.03206412825651302,0.06813627254509018,0.11422845691382766,0.07014028056112225,0.014028056112224449,0.04208416833667335,0.04208416833667335,0.0781563126252505,0.05811623246492986,0.006012024048096192,0.022044088176352707,0.07214428857715431,-0.6513026052104208,-0.9619238476953907,-0.6172344689378757,-1.0561122244488979,-1.9478957915831663,-0.6613226452905812,-0.6533066132264529,-1.5991983967935872,-1.12625250501002,-1.0501002004008015,-0.9979959919839679,-0.6232464929859719,-0.6733466933867736,-1.5190380761523046,-1.529058116232465,-0.32064128256513025,-0.4729458917835671,-2.4829659318637276,-1.31062124248497,-0.8396793587174348
P32908,0.04979591836734694,0.04897959183673469,0.07020408163265306,0.05714285714285714,0.004897959183673469,0.05061224489795919,0.11020408163265306,0.04,0.014693877551020407,0.07673469387755102,0.10693877551020409,0.10938775510204081,0.013877551020408163,0.03183673469387755,0.017959183673469388,0.07673469387755102,0.04326530612244898,0.0024489795918367346,0.0326530612244898,0.04163265306122449,-0.6791836734693878,-0.6514285714285715,-0.4546938775510204,-0.8318367346938775,-2.116734693877551,-0.2342857142857143,-0.16489795918367348,-1.7216326530612245,-1.04734693877551,-1.229387755102041,-1.0840816326530611,-0.18122448979591838,-0.6840816326530612,-1.6457142857142857,-1.6310204081632653,-0.21714285714285714,-0.5469387755102041,-2.532244897959184,-1.3036734693877552,-0.9820408163265306
P32917,0.03925845147219193,0.04471101417666303,0.07851690294438386,0.06870229007633588,0.017448200654307525,0.030534351145038167,0.061068702290076333,0.03598691384950927,0.021810250817884406,0.07415485278080698,0.10141766630316248,0.05452562704471101,0.010905125408942203,0.04471101417666303,0.05561613958560523,0.12213740458015267,0.06324972737186478,0.006543075245365322,0.021810250817884406,0.04689203925845147,-0.6444929116684842,-1.0087241003271539,-0.4514721919302072,-0.8658669574700109,-1.8233369683751364,-0.5965103598691385,-0.5812431842966194,-1.6564885496183206,-1.1363140676117776,-1.1450381679389312,-1.1057797164667393,-0.6466739367502726,-0.7393675027262814,-1.5572519083969465,-1.3773173391494002,-0.07851690294438386,-0.34242093784078514,-2.531079607415485,-1.3631406761177753,-0.9781897491821155
P33338,0.09090909090909091,0.042355371900826444,0.04338842975206612,0.05785123966942149,0.009297520661157025,0.08677685950413223,0.07644628099173553,0.023760330578512397,0.023760330578512397,0.05475206611570248,0.10640495867768596,0.058884297520661155,0.023760330578512397,0.026859504132231406,0.03925619834710744,0.08057851239669421,0.07024793388429752,0.006198347107438017,0.023760330578512397,0.05475206611570248,-0.4142561983471074,-0.8068181818181818,-0.7138429752066116,-0.96900826446281,-1.8543388429752066,-0.19111570247933884,-0.3419421487603306,-1.7830578512396693,-1.1270661157024793,-1.1353305785123966,-0.981404958677686,-0.47210743801652894,-0.5516528925619835,-1.6673553719008265,-1.3853305785123966,-0.16322314049586778,-0.33264462809917356,-2.459710743801653,-1.3264462809917354,-0.8223140495867769
P33419,0.023715415019762844,0.1067193675889328,0.07509881422924901,0.07509881422924901,0.0,0.03162055335968379,0.07114624505928854,0.04743083003952569,0.023715415019762844,0.05138339920948617,0.08300395256916997,0.06719367588932806,0.019762845849802372,0.039525691699604744,0.04743083003952569,0.13043478260869565,0.05138339920948617,0.0,0.03162055335968379,0.023715415019762844,-0.7430830039525692,-0.43873517786561267,-0.15810276679841898,-0.6600790513833992,-2.2094861660079053,-0.2608695652173913,-0.25296442687747034,-1.4703557312252964,-0.8379446640316206,-1.5889328063241106,-1.4229249011857708,-0.233201581027668,-0.8735177865612648,-1.7391304347826086,-1.3675889328063242,0.015810276679841896,-0.4505928853754941,-2.6047430830039526,-1.383399209486166,-1.3992094861660078
P33420,0.03571428571428571,0.03571428571428571,0.07949308755760369,0.055299539170506916,0.009216589861751152,0.052995391705069124,0.097926267281106,0.029953917050691243,0.01728110599078341,0.07603686635944701,0.15207373271889402,0.097926267281106,0.012672811059907835,0.03456221198156682,0.01728110599078341,0.0748847926267281,0.05184331797235023,0.004608294930875576,0.026497695852534562,0.038018433179723504,-0.7649769585253456,-0.7972350230414746,-0.5080645161290323,-0.967741935483871,-2.0034562211981566,-0.3456221198156682,-0.35368663594470046,-1.902073732718894,-1.1221198156682028,-1.0334101382488479,-0.8087557603686636,-0.3444700460829493,-0.5345622119815668,-1.5241935483870968,-1.7200460829493087,-0.29377880184331795,-0.4988479262672811,-2.478110599078341,-1.271889400921659,-0.8744239631336406
P34730,0.08424908424908426,0.04395604395604396,0.02564102564102564,0.05128205128205128,0.003663003663003663,0.10256410256410256,0.11355311355311355,0.029304029304029304,0.018315018315018316,0.05128205128205128,0.08791208791208792,0.06227106227106227,0.018315018315018316,0.018315018315018316,0.02564102564102564,0.11355311355311355,0.05860805860805861,0.007326007326007326,0.04395604395604396,0.040293040293040296,-0.39194139194139194,-0.6666666666666666,-0.6410256410256411,-0.7985347985347986,-2.0073260073260073,0.08424908424908426,-0.003663003663003663,-1.6703296703296704,-0.9816849816849816,-1.3663003663003663,-1.1904761904761905,-0.2857142857142857,-0.6666666666666666,-1.7179487179487178,-1.4212454212454213,0.007326007326007326,-0.3882783882783883,-2.36996336996337,-1.216117216117216,-1.0073260073260073
P35056,0.06372549019607843,0.03594771241830065,0.09803921568627451,0.05555555555555555,0.00980392156862745,0.06372549019607843,0.08823529411764706,0.05718954248366013,0.016339869281045753,0.0457516339869281,0.08986928104575163,0.06535947712418301,0.029411764705882353,0.04084967320261438,0.03431372549019608,0.08169934640522876,0.03758169934640523,0.013071895424836602,0.029411764705882353,0.04411764705882353,-0.6356209150326797,-0.8316993464052288,-0.315359477124183,-0.8120915032679739,-2.0392156862745097,-0.26633986928104575,-0.31862745098039214,-1.4248366013071896,-0.9950980392156863,-1.4199346405228759,-1.2679738562091503,-0.45588235294117646,-0.7320261437908496,-1.6290849673202614,-1.5179738562091503,-0.1388888888888889,-0.5620915032679739,-2.361111111111111,-1.2875816993464053,-1.142156862745098
P35191,0.07436399217221135,0.04500978473581213,0.043052837573385516,0.06262230919765166,0.019569471624266144,0.043052837573385516,0.0410958904109589,0.1095890410958904,0.03131115459882583,0.06457925636007827,0.043052837573385516,0.09393346379647749,0.019569471624266144,0.046966731898238745,0.046966731898238745,0.0684931506849315,0.06457925636007827,0.003913894324853229,0.025440313111545987,0.05283757338551859,-0.461839530332681,-0.9099804305283757,-0.6086105675146771,-0.958904109589041,-1.8806262230919766,-0.5870841487279843,-0.6438356164383562,-1.0684931506849316,-1.1056751467710373,-1.4696673189823874,-1.4755381604696673,-0.5225048923679061,-0.9354207436399217,-1.6790606653620352,-1.3835616438356164,-0.18395303326810175,-0.5225048923679061,-2.432485322896282,-1.3913894324853229,-1.0978473581213308
P35210,0.038817005545286505,0.04436229205175601,0.11645101663585952,0.07024029574861368,0.014787430683918669,0.033271719038817,0.038817005545286505,0.04066543438077634,0.02033271719038817,0.06099815157116451,0.10351201478743069,0.056377079482439925,0.025878003696857672,0.05083179297597042,0.04251386321626617,0.12014787430683918,0.06377079482439926,0.006469500924214418,0.0166358595194085,0.03512014787430684,-0.6987060998151571,-0.9325323475046211,-0.1598890942698706,-0.8271719038817006,-1.8521256931608132,-0.5683918669131238,-0.6487985212569316,-1.5258780036968578,-1.064695009242144,-1.2412199630314233,-1.1303142329020333,-0.609981515711645,-0.6977818853974121,-1.5397412199630314,-1.5064695009242144,-0.0018484288354898336,-0.32162661737523107,-2.524029574861368,-1.3835489833641406,-1.1072088724584104
P35719,0.045662100456621,0.0410958904109589,0.0365296803652968,0.1050228310502283,0.0,0.0410958904109589,0.1141552511415525,0.0365296803652968,0.0091324200913242,0.0593607305936073,0.1232876712328767,0.1050228310502283,0.0045662100456621,0.0593607305936073,0.0319634703196347,0.0776255707762557,0.0410958904109589,0.0045662100456621,0.0091324200913242,0.0547945205479452,-0.7123287671232876,-0.8584474885844748,-0.680365296803653,-0.5753424657534246,-2.182648401826484,-0.3424657534246575,-0.1004566210045662,-1.7762557077625571,-1.2602739726027397,-1.2100456621004567,-1.1004566210045663,-0.2922374429223744,-0.7488584474885844,-1.5707762557077625,-1.5022831050228311,-0.2785388127853881,-0.5799086757990868,-2.5662100456621006,-1.45662100456621,-0.9817351598173516
P36010,0.058823529411764705,0.05228758169934641,0.026143790849673203,0.058823529411764705,0.006535947712418301,0.0392156862745098,0.0718954248366013,0.0915032679738562,0.0196078431372549,0.058823529411764705,0.0784313725490196,0.0915032679738562,0.0196078431372549,0.0457516339869281,0.0392156862745098,0.0718954248366013,0.0392156862745098,0.026143790849673203,0.0196078431372549,0.08496732026143791,-0.5620915032679739,-0.9477124183006536,-0.8954248366013072,-1.1045751633986929,-2.019607843137255,-0.5686274509803921,-0.5751633986928104,-1.34640522875817,-1.2810457516339868,-1.2418300653594772,-1.2026143790849673,-0.5228758169934641,-0.7320261437908496,-1.5490196078431373,-1.522875816993464,-0.3790849673202614,-0.6535947712418301,-2.1633986928104574,-1.3202614379084967,-0.9084967320261438
P36036,0.04926108374384237,0.11330049261083744,0.059113300492610835,0.07389162561576355,0.0049261083743842365,0.024630541871921183,0.09359605911330049,0.04926108374384237,0.03940886699507389,0.059113300492610835,0.054187192118226604,0.08866995073891626,0.019704433497536946,0.029556650246305417,0.059113300492610835,0.07389162561576355,0.034482758620689655,0.0,0.03940886699507389,0.034482758620689655,-0.7241379310344828,-0.3448275862068966,-0.3399014778325123,-0.6847290640394089,-2.2660098522167487,-0.22660098522167488,-0.12315270935960591,-1.522167487684729,-0.6945812807881774,-1.6600985221674878,-1.5665024630541873,-0.12315270935960591,-0.9753694581280788,-1.8472906403940887,-1.2463054187192117,-0.2315270935960591,-0.6600985221674877,-2.6305418719211824,-1.3300492610837438,-1.3694581280788178
P36057,0.06557377049180328,0.036885245901639344,0.036885245901639344,0.05737704918032787,0.012295081967213115,0.03278688524590164,0.06967213114754098,0.045081967213114756,0.004098360655737705,0.09016393442622951,0.10655737704918032,0.0942622950819672,0.00819672131147541,0.03278688524590164,0.03278688524590164,0.09836065573770492,0.0778688524590164,0.00819672131147541,0.020491803278688523,0.06967213114754098,-0.4385245901639344,-1.0081967213114753,-0.8401639344262295,-1.098360655737705,-1.7622950819672132,-0.6270491803278688,-0.6024590163934426,-1.7172131147540983,-1.4836065573770492,-0.8811475409836066,-0.8647540983606558,-0.5122950819672131,-0.5942622950819673,-1.5655737704918034,-1.5204918032786885,-0.18442622950819673,-0.27459016393442626,-2.4836065573770494,-1.430327868852459,-0.6229508196721312
P36068,0.052845528455284556,0.028455284552845527,0.052845528455284556,0.07317073170731707,0.016260162601626018,0.028455284552845527,0.08536585365853659,0.028455284552845527,0.02032520325203252,0.07317073170731707,0.13414634146341464,0.07723577235772358,0.012195121951219513,0.06097560975609756,0.016260162601626018,0.07723577235772358,0.06097560975609756,0.012195121951219513,0.028455284552845527,0.06097560975609756,-0.6747967479674797,-1.1097560975609757,-0.8170731707317073,-1.0447154471544715,-1.7926829268292683,-0.6626016260162602,-0.5894308943089431,-1.9268292682926829,-1.2357723577235773,-0.8536585365853658,-0.7682926829268293,-0.6707317073170732,-0.5447154471544715,-1.2195121951219512,-1.7967479674796747,-0.3699186991869919,-0.4634146341463415,-2.272357723577236,-1.1178861788617886,-0.7113821138211383
P36094,0.030303030303030304,0.06611570247933884,0.10743801652892562,0.08264462809917356,0.005509641873278237,0.03581267217630854,0.07713498622589532,0.013774104683195593,0.01652892561983471,0.0440771349862259,0.08264462809917356,0.09641873278236915,0.030303030303030304,0.01928374655647383,0.06336088154269973,0.09090909090909091,0.049586776859504134,0.0,0.04132231404958678,0.046831955922865015,-0.8181818181818182,-0.5564738292011019,-0.09090909090909091,-0.5674931129476584,-2.1707988980716255,-0.18181818181818182,-0.1487603305785124,-1.7465564738292012,-0.8787878787878788,-1.487603305785124,-1.3581267217630855,-0.12121212121212122,-0.790633608815427,-1.8677685950413223,-1.1790633608815426,-0.09917355371900827,-0.42699724517906334,-2.7052341597796143,-1.3856749311294765,-1.2203856749311295
P36095,0.05357142857142857,0.08482142857142858,0.06696428571428571,0.07142857142857142,0.0,0.0625,0.125,0.026785714285714284,0.0,0.05803571428571429,0.08035714285714286,0.08482142857142858,0.05803571428571429,0.004464285714285714,0.022321428571428572,0.049107142857142856,0.04017857142857143,0.004464285714285714,0.026785714285714284,0.08035714285714286,-0.6651785714285714,-0.4419642857142857,-0.48660714285714285,-0.7276785714285714,-2.1964285714285716,0.017857142857142856,0.03571428571428571,-1.8214285714285714,-1.15625,-1.2008928571428572,-1.09375,-0.09375,-0.47767857142857145,-1.9107142857142858,-1.4955357142857142,-0.32142857142857145,-0.5223214285714286,-2.6205357142857144,-1.5,-0.8482142857142857
