Protein Identifier,A,R,N,D,C,Q,E,G,H,I,L,K,M,F,P,S,T,W,Y,V
Q9BYF1,-0.5932835820895522,-0.9838308457711443,-0.804726368159204,-1.092039800995025,-2.199004975124378,-0.5074626865671642,-0.6231343283582089,-1.7002487562189055,-1.0945273631840795,-1.2723880597014925,-1.123134328358209,-0.7089552238805971,-0.8097014925373134,-1.3507462686567164,-1.5472636815920398,-0.4527363184079602,-0.48009950248756217,-2.044776119402985,-0.9925373134328358,-1.0796019900497513
P0DTC2,-0.5613207547169812,-1.2814465408805031,-0.42452830188679247,-1.0998427672955975,-1.5196540880503144,-0.7232704402515723,-1.1124213836477987,-1.3176100628930818,-1.3081761006289307,-0.9174528301886793,-0.9591194968553459,-0.9654088050314465,-0.9025157232704403,-0.9323899371069182,-1.4119496855345912,-0.1289308176100629,-0.11242138364779874,-2.169811320754717,-0.7036163522012578,-0.6784591194968553
P68400,-1.4282051282051282,-1.353846153846154,-1.6076923076923078,-1.8153846153846154,-2.1384615384615384,-1.3205128205128205,-1.3333333333333333,-2.4076923076923076,-1.435897435897436,-1.541025641025641,-1.4794871794871796,-1.1025641025641026,-1.2333333333333334,-1.9564102564102563,-1.9102564102564104,-1.123076923076923,-1.3384615384615384,-3.394871794871795,-1.8743589743589744,-1.5128205128205128
Q8NFJ9,-0.35135135135135137,-0.9864864864864865,-0.9695945945945946,-1.3057432432432432,-1.6925675675675675,-0.5388513513513513,-0.7837837837837838,-1.6486486486486487,-1.1537162162162162,-0.8766891891891891,-0.7550675675675675,-0.6908783783783784,-0.5,-1.4070945945945945,-1.2989864864864864,-0.3581081081081081,-0.2668918918918919,-2.383445945945946,-1.1655405405405406,-0.6216216216216216
Q3SYG4,-0.4706546275395034,-0.8679458239277652,-0.7674943566591422,-1.0575620767494356,-1.6388261851015802,-0.35327313769751695,-0.5643340857787811,-1.492099322799097,-1.1309255079006773,-0.9514672686230248,-0.8860045146726863,-0.6038374717832957,-0.5711060948081265,-1.3781038374717833,-1.3013544018058691,-0.23702031602708803,-0.22121896162528218,-2.214446952595937,-1.1997742663656885,-0.7325056433408578
Q9BXC9,-0.49722222222222223,-0.9236111111111112,-0.7125,-0.9916666666666667,-1.8291666666666666,-0.5180555555555556,-0.6222222222222222,-1.5180555555555555,-1.0486111111111112,-1.0472222222222223,-1.1291666666666667,-0.7027777777777777,-0.7236111111111111,-1.4958333333333333,-1.5583333333333333,-0.3055555555555556,-0.3055555555555556,-2.463888888888889,-1.2319444444444445,-0.8111111111111111
Q8IWZ6,-0.5196078431372549,-0.9103641456582633,-0.65406162464986,-0.9789915966386554,-1.669467787114846,-0.45518207282913165,-0.572829131652661,-1.4579831932773109,-1.035014005602241,-0.9663865546218487,-1.011204481792717,-0.623249299719888,-0.6330532212885154,-1.387955182072829,-1.550420168067227,-0.25910364145658266,-0.23669467787114845,-2.3753501400560224,-1.1400560224089635,-0.7549019607843137
Q96RK4,-0.10810810810810811,-0.43243243243243246,-0.6814671814671814,-0.8861003861003861,-1.2432432432432432,0.17567567567567569,0.19111969111969113,-1.9903474903474903,-0.36486486486486486,-1.2393822393822393,-0.5579150579150579,-0.003861003861003861,-0.4362934362934363,-1.415057915057915,-2.0752895752895753,-0.5115830115830116,-1.2007722007722008,-1.83011583011583,-0.3996138996138996,-1.4266409266409266
Q15154,-0.36183885318833414,-0.4117647058823529,-0.25160652496292635,-0.5170538803756797,-1.842313395946614,0.16510133465150767,0.15916955017301038,-1.3386060306475531,-0.8324270884824518,-1.4616905585763718,-1.2970835392980722,-0.014335145823035097,-0.7978250123578843,-1.7899159663865547,-0.9703410776075136,0.13791398912506178,-0.19278299555116163,-2.416707859614434,-1.4196737518536826,-1.1033119130004942
Q8N3I7,-0.6088235294117647,-0.8911764705882353,-0.7588235294117647,-1.0794117647058823,-2.1176470588235294,-0.55,-0.6617647058823529,-1.6529411764705881,-1.1647058823529413,-0.9529411764705882,-1.026470588235294,-0.7470588235294118,-0.7264705882352941,-1.5235294117647058,-1.5705882352941176,-0.36470588235294116,-0.3382352941176471,-2.426470588235294,-1.261764705882353,-0.7529411764705882
Q8TAM2,-0.10185185185185185,-0.5148148148148148,-0.6148148148148148,-0.9981481481481481,-1.4351851851851851,-0.02962962962962963,-0.06851851851851852,-1.8888888888888888,-0.524074074074074,-1.0944444444444446,-0.48148148148148145,-0.22407407407407406,-0.40370370370370373,-1.2925925925925925,-1.9425925925925926,-0.524074074074074,-0.8685185185185185,-1.9462962962962962,-0.40925925925925927,-1.2277777777777779
Q9NQ48,-0.436241610738255,-0.010067114093959731,-0.35906040268456374,-0.610738255033557,-2.1241610738255035,0.36577181208053694,0.3221476510067114,-1.7147651006711409,-0.7919463087248322,-1.3557046979865772,-0.9496644295302014,0.1912751677852349,-0.5503355704697986,-1.7483221476510067,-1.5771812080536913,-0.10067114093959731,-0.3221476510067114,-2.38255033557047,-1.325503355704698,-0.959731543624161
Q6ZW61,-0.34837799717912554,-0.9619181946403385,-0.7574047954866009,-1.1071932299012694,-1.630465444287729,-0.5641748942172073,-0.610719322990127,-1.531734837799718,-1.1354019746121298,-0.842031029619182,-0.8730606488011283,-0.6177715091678421,-0.5684062059238364,-1.5021156558533146,-1.620592383638928,-0.20451339915373765,-0.21015514809590974,-2.5077574047954867,-1.3483779971791254,-0.6191819464033851
Q9NPJ1,-0.1687170474516696,-1.149384885764499,-1.0843585237258349,-1.0298769771528997,-2.142355008787346,-0.9332161687170475,-0.5940246045694201,-1.3181019332161688,-1.9876977152899824,-0.6818980667838312,-1.086115992970123,-0.5307557117750439,-0.9894551845342706,-2.2530755711775043,-2.024604569420035,-0.6537785588752196,-0.5852372583479789,-3.319859402460457,-2.142355008787346,-0.4780316344463972
A8MTZ0,-0.38461538461538464,-0.3956043956043956,-0.7252747252747253,-1.065934065934066,-1.934065934065934,0.12087912087912088,-0.10989010989010989,-1.7802197802197801,-1.164835164835165,-1.1758241758241759,-0.9230769230769231,0.0,-0.26373626373626374,-1.879120879120879,-1.021978021978022,-0.25274725274725274,-0.3626373626373626,-2.5274725274725274,-1.5934065934065933,-0.9010989010989011
Q3V3N7,-0.3581081081081081,-0.9746621621621622,-0.9222972972972973,-1.2804054054054055,-1.7043918918918919,-0.5236486486486487,-0.7601351351351351,-1.6418918918918919,-1.133445945945946,-0.8851351351351351,-0.7618243243243243,-0.6722972972972973,-0.5033783783783784,-1.3986486486486487,-1.2837837837837838,-0.33614864864864863,-0.2652027027027027,-2.383445945945946,-1.1638513513513513,-0.6385135135135135
Q9CWF6,-0.49166666666666664,-0.9472222222222222,-0.7138888888888889,-1.0097222222222222,-1.851388888888889,-0.5263888888888889,-0.6611111111111111,-1.525,-1.0583333333333333,-1.038888888888889,-1.1208333333333333,-0.7430555555555556,-0.7166666666666667,-1.5208333333333333,-1.5583333333333333,-0.31527777777777777,-0.3138888888888889,-2.473611111111111,-1.2333333333333334,-0.8236111111111111
P61006,-1.3737864077669903,-1.5825242718446602,-1.6067961165048543,-1.9854368932038835,-1.7621359223300972,-1.2135922330097086,-1.4368932038834952,-2.6601941747572817,-1.8592233009708738,-1.412621359223301,-1.470873786407767,-1.2621359223300972,-1.5097087378640777,-2.3058252427184467,-2.616504854368932,-0.970873786407767,-1.145631067961165,-3.7135922330097086,-2.145631067961165,-1.3058252427184467
Q96QF0,-0.31157894736842107,-0.6442105263157895,-0.5368421052631579,-0.8105263157894737,-1.6421052631578947,-0.11578947368421053,-0.0863157894736842,-1.4652631578947368,-0.9663157894736842,-1.0905263157894738,-0.9494736842105264,-0.30105263157894735,-0.7684210526315789,-1.5810526315789473,-0.9873684210526316,-0.02526315789473684,-0.20842105263157895,-2.334736842105263,-1.2968421052631578,-0.8147368421052632
P48553,-0.44435612082670906,-0.7766295707472178,-0.7623211446740858,-0.9968203497615262,-1.600953895071542,-0.2790143084260731,-0.4356120826709062,-1.6248012718600955,-0.9085850556438791,-0.9594594594594594,-0.7829888712241654,-0.505564387917329,-0.5651828298887123,-1.217806041335453,-1.1669316375198728,-0.23370429252782193,-0.2933227344992051,-2.0294117647058822,-0.9642289348171701,-0.7329093799682035
Q8NCK7,0.10986547085201794,-2.1300448430493275,-1.8654708520179373,-2.7757847533632285,-1.358744394618834,-1.688340807174888,-2.42152466367713,-0.6233183856502242,-2.100896860986547,0.11659192825112108,0.06726457399103139,-2.2152466367713006,0.2623318385650224,0.2713004484304933,-1.4663677130044843,-0.2645739910313901,-0.336322869955157,-0.6121076233183856,-0.7959641255605381,-0.08071748878923767
Q96Q05,-0.33129904097646035,-0.7175239755884917,-0.6765475152571927,-0.949433304272014,-1.5370531822144726,-0.3234524847428073,-0.4899738448125545,-1.4524847428073235,-0.9503051438535309,-0.7768090671316478,-0.7175239755884917,-0.5196163905841326,-0.6068003487358327,-1.1795989537925022,-1.060156931124673,-0.05143853530950305,-0.23365300784655624,-2.089799476896251,-1.010462074978204,-0.6224934612031386
Q08850,-0.49158249158249157,-0.3400673400673401,-0.49158249158249157,-0.5723905723905723,-2.3434343434343434,0.2828282828282828,-0.06060606060606061,-1.7777777777777777,-1.1346801346801347,-0.9528619528619529,-0.8754208754208754,-0.18181818181818182,-0.5757575757575758,-1.7643097643097643,-2.0841750841750843,-0.2895622895622896,-0.41414141414141414,-3.0505050505050506,-1.6835016835016836,-0.797979797979798
P63045,-0.2956521739130435,-0.8608695652173913,-0.7565217391304347,-1.2608695652173914,-2.208695652173913,-0.33043478260869563,-0.8782608695652174,-1.565217391304348,-1.6782608695652175,-0.991304347826087,-1.0347826086956522,-0.5043478260869565,-0.5391304347826087,-1.617391304347826,-1.5565217391304347,-0.2,-0.4956521739130435,-2.5391304347826087,-1.4695652173913043,-0.8
P27986,-0.8312586445366529,-0.5103734439834025,-0.7441217150760719,-0.9778699861687413,-1.582295988934993,-0.23789764868603042,-0.34163208852005533,-1.5947441217150762,-0.6998616874135546,-1.103734439834025,-0.8782849239280774,-0.3789764868603043,-0.8686030428769018,-1.367911479944675,-0.9446749654218534,-0.34163208852005533,-0.5905947441217151,-2.219917012448133,-1.0926694329183955,-1.0179806362378976
P0DJI6,-0.3047619047619048,-0.7523809523809524,-0.7333333333333333,-1.1523809523809523,-1.5047619047619047,-0.6190476190476191,-0.819047619047619,-0.7523809523809524,-1.2380952380952381,-1.7523809523809524,-1.5333333333333334,-0.780952380952381,-1.019047619047619,-2.0285714285714285,-1.2571428571428571,-0.1523809523809524,-0.5523809523809524,-2.6476190476190475,-1.723809523809524,-1.4
Q9R1E0,-0.16282642089093702,-0.8986175115207373,-0.3640552995391705,-0.7880184331797235,-1.7035330261136712,0.030721966205837174,-0.5898617511520737,-0.511520737327189,-0.423963133640553,-1.4946236559139785,-1.0245775729646698,-0.7634408602150538,-0.6144393241167435,-1.6251920122887864,0.5529953917050692,0.5468509984639017,-0.2411674347158218,-2.2749615975422426,-1.1397849462365592,-1.241167434715822
Q9H0F7,-1.3837837837837839,-1.7945945945945947,-1.681081081081081,-1.9027027027027028,-2.0594594594594593,-1.4486486486486487,-1.5837837837837838,-2.502702702702703,-2.0054054054054054,-1.0756756756756756,-1.4054054054054055,-1.1513513513513514,-1.3837837837837839,-1.8432432432432433,-3.081081081081081,-1.1027027027027028,-1.0864864864864865,-3.4918918918918918,-1.8972972972972972,-1.2486486486486486
O09044,-0.5885167464114832,-0.11961722488038277,-0.10047846889952153,-0.28708133971291866,-2.3636363636363638,0.22966507177033493,0.15311004784688995,-1.2822966507177034,-0.9330143540669856,-1.1339712918660287,-1.1770334928229664,0.05263157894736842,-0.5550239234449761,-2.062200956937799,-1.5933014354066986,-0.1339712918660287,-0.35406698564593303,-2.8564593301435406,-1.7751196172248804,-1.1483253588516746
O95273,-0.18384401114206128,-0.8551532033426184,-0.8551532033426184,-0.83008356545961,-1.5403899721448469,-0.3565459610027855,-0.39275766016713093,-1.4596100278551531,-1.1643454038997214,-0.9303621169916435,-0.8857938718662952,-0.6100278551532033,-0.6350974930362117,-1.6796657381615598,-1.158774373259053,-0.15041782729805014,-0.25348189415041783,-2.3871866295264623,-1.4401114206128134,-0.6796657381615598
P78371,-0.5561797752808989,-1.8595505617977528,-1.7303370786516854,-1.8408239700374531,-2.799625468164794,-1.5112359550561798,-1.3127340823970037,-2.1273408239700373,-2.595505617977528,-1.2808988764044944,-1.6086142322097379,-1.1329588014981273,-1.4887640449438202,-2.9737827715355807,-2.7883895131086143,-1.147940074906367,-1.1086142322097379,-4.235955056179775,-2.897003745318352,-0.8895131086142322
P55042,-0.745928338762215,-0.8403908794788274,-1.1661237785016287,-1.3061889250814331,-1.8664495114006514,-0.8436482084690554,-0.9576547231270358,-1.6807817589576548,-1.4625407166123778,-1.3289902280130292,-1.4071661237785016,-0.755700325732899,-1.3941368078175895,-2.0716612377850163,-1.482084690553746,-0.4527687296416938,-0.6677524429967426,-3.0553745928338762,-1.8631921824104234,-1.1791530944625408
Q9Y4H2,0.04712041884816754,-0.34405385190725507,-0.49962602842183995,-0.56245325355273,-1.5489902767389678,0.012715033657442034,-0.2094240837696335,-0.5003739715781601,-0.7546746447270007,-1.3649962602842185,-1.1907255048616305,-0.34480179506357517,-0.9977561705310396,-1.6641735228122663,1.0291697830964848,0.694091249065071,0.18399401645474944,-2.267763649962603,-1.3231114435302918,-0.9640987284966342
Q60700,-0.7023675310033822,-0.5839909808342728,-0.9346110484780158,-0.9864712514092446,-1.8421645997745209,-0.5434047350620068,-0.5095828635851184,-1.4768883878241263,-1.0811724915445322,-1.5073280721533258,-1.2829763246899661,-0.5479143179255919,-1.0710259301014655,-1.9177001127395716,-0.6031567080045096,-0.02593010146561443,-0.5445321307779031,-2.809470124013529,-1.6550169109357384,-1.286358511837655
P37238,-0.8571428571428571,-0.9503968253968254,-0.8531746031746031,-1.1666666666666667,-1.1488095238095237,-0.45436507936507936,-0.8511904761904762,-1.6071428571428572,-0.5972222222222222,-1.1805555555555556,-0.9126984126984127,-0.8968253968253969,-0.3353174603174603,-1.2599206349206349,-0.8571428571428571,-0.09325396825396826,-0.623015873015873,-2.5615079365079363,-1.1507936507936507,-1.1865079365079365
P05026,-0.9867549668874173,-1.228476821192053,-0.9635761589403974,-1.2682119205298013,-2.26158940397351,-0.7947019867549668,-1.0165562913907285,-1.5927152317880795,-1.4304635761589404,-1.3509933774834437,-1.3476821192052981,-0.7847682119205298,-1.0298013245033113,-1.2682119205298013,-1.4602649006622517,-0.6986754966887417,-0.6589403973509934,-2.2019867549668874,-1.0165562913907285,-1.205298013245033
O76024,-0.45556805399325084,-0.8965129358830146,-1.0089988751406074,-1.391451068616423,-1.6175478065241844,-0.608548931383577,-0.8008998875140607,-1.6062992125984252,-1.1237345331833521,-0.8796400449943758,-0.7446569178852643,-0.7851518560179978,-0.4983127109111361,-1.1484814398200225,-1.3363329583802024,-0.42407199100112486,-0.3779527559055118,-1.9651293588301462,-1.0089988751406074,-0.7199100112485939
Q14643,-0.553500181356547,-0.774392455567646,-0.7043888284367066,-1.0155966630395357,-1.7377584330794342,-0.36525208560029016,-0.4987305041712006,-1.5114254624591947,-0.9104098657961552,-0.9938338774029742,-0.8523757707653247,-0.5698222705839681,-0.4972796517954298,-1.33151976786362,-1.4552049328980776,-0.34276387377584333,-0.34566557852738483,-2.133841131664853,-1.0562205295611171,-0.8092129125861444
Q96EB6,-0.3632707774798928,-0.6943699731903485,-0.7453083109919572,-0.6890080428954424,-1.8753351206434317,-0.45576407506702415,-0.26005361930294907,-1.3230563002680966,-1.0281501340482573,-1.418230563002681,-1.3136729222520107,-0.5134048257372654,-1.1045576407506703,-1.7707774798927614,-1.03485254691689,-0.22788203753351208,-0.5871313672922251,-2.4664879356568363,-1.4624664879356568,-1.1394101876675604
P06213,-0.9044170890658942,-1.002172338884866,-0.9471397538015931,-1.3135409123823316,-1.7096307023895727,-0.8957277335264301,-0.942795076031861,-1.5691527878349023,-1.1361332367849384,-1.2592324402606807,-1.168718320057929,-0.9869659666908037,-1.0970311368573498,-1.714699493120927,-1.2947139753801593,-0.4076755973931933,-0.6010137581462708,-2.4417089065894277,-1.4062273714699494,-1.0586531498913831
Q80U30,-0.39806763285024155,-0.8434782608695652,-0.6676328502415458,-0.9265700483091788,-1.6995169082125603,-0.37874396135265703,-0.47729468599033814,-1.4415458937198067,-0.9594202898550724,-0.9381642512077295,-0.8502415458937198,-0.6280193236714976,-0.6057971014492753,-1.3478260869565217,-1.017391304347826,0.030917874396135265,0.017391304347826087,-2.310144927536232,-1.143961352657005,-0.7304347826086957
P20393,-0.6117455138662317,-0.8254486133768353,-0.7944535073409462,-1.1092985318107667,-1.101141924959217,-0.28548123980424145,-0.765089722675367,-1.3491027732463294,-0.4926590538336052,-1.267536704730832,-0.9608482871125612,-0.9216965742251223,-0.42251223491027734,-1.360522022838499,-0.5693311582381729,0.13376835236541598,-0.49592169657422513,-2.7243066884176184,-1.099510603588907,-1.1272430668841762
Q8BH75,-0.9082278481012658,-0.6234177215189873,-1.0221518987341771,-1.0411392405063291,-1.018987341772152,-0.11075949367088607,-0.17088607594936708,-2.1107594936708862,-0.759493670886076,-1.370253164556962,-0.9968354430379747,-0.3449367088607595,-0.8892405063291139,-1.8449367088607596,-1.7373417721518987,-0.5886075949367089,-0.8354430379746836,-2.7056962025316458,-1.6044303797468353,-1.1677215189873418
Q00535,-2.058419243986254,-2.178694158075601,-2.429553264604811,-2.577319587628866,-2.3848797250859106,-2.1752577319587627,-2.2130584192439864,-3.2646048109965635,-2.106529209621993,-1.8178694158075601,-1.7628865979381443,-1.7938144329896908,-1.5326460481099657,-2.388316151202749,-3.185567010309278,-1.9140893470790379,-2.0481099656357387,-3.993127147766323,-2.3539518900343643,-2.0171821305841924
O35567,-0.3925549915397631,-1.544839255499154,-1.4077834179357023,-1.4534686971235196,-2.4923857868020303,-1.1878172588832487,-1.155668358714044,-1.7377326565143825,-1.8274111675126903,-1.4196277495769882,-1.6159052453468696,-1.1065989847715736,-1.4703891708967851,-2.042301184433164,-2.00507614213198,-0.9475465313028765,-1.0,-3.023688663282572,-1.9932318104906936,-1.1708967851099832
P15127,-0.8878437047756874,-0.9797395079594791,-0.9276410998552822,-1.2785817655571636,-1.6367583212735166,-0.8509406657018813,-0.877713458755427,-1.5709117221418234,-1.1374819102749638,-1.2301013024602026,-1.1418234442836468,-0.9363241678726484,-1.073082489146165,-1.6975397973950797,-1.3053545586107091,-0.38929088277858176,-0.5969609261939218,-2.428364688856729,-1.3958031837916063,-1.0144717800289436
P48356,-0.6666666666666666,-0.801894918173988,-0.6830318690783808,-1.0094745908699396,-1.7278208440999139,-0.4315245478036176,-0.5271317829457365,-1.2868217054263567,-0.797588285960379,-1.0111972437553833,-1.0671834625322998,-0.7123169681309216,-1.0292850990525408,-1.37984496124031,-0.6770025839793282,-0.01636520241171404,-0.024117140396210164,-1.714900947459087,-0.917312661498708,-0.6141257536606374
P62491,-1.3209302325581396,-1.5302325581395348,-1.413953488372093,-1.7255813953488373,-1.930232558139535,-1.172093023255814,-1.302325581395349,-2.4232558139534883,-1.8,-1.441860465116279,-1.627906976744186,-1.1674418604651162,-1.5627906976744186,-2.2744186046511627,-2.5348837209302326,-0.9069767441860465,-1.0093023255813953,-3.6186046511627907,-2.097674418604651,-1.3209302325581396
Q9WVH4,-0.13859910581222057,-0.8941877794336811,-0.44411326378539495,-0.7660208643815202,-1.6855439642324888,0.07004470938897168,-0.5380029806259314,-0.5394932935916542,-0.45603576751117736,-1.4411326378539493,-1.0238450074515648,-0.7466467958271237,-0.6348733233979136,-1.652757078986587,0.879284649776453,0.5245901639344263,-0.12369597615499255,-2.3263785394932937,-1.1773472429210134,-1.1833084947839045
Q14449,-0.6326530612244898,-0.608534322820037,-0.8923933209647495,-1.0092764378478665,-1.62708719851577,-0.26716141001855287,-0.3803339517625232,-1.5213358070500929,-0.7773654916512059,-1.2987012987012987,-1.0204081632653061,-0.37662337662337664,-0.849721706864564,-1.523191094619666,-0.8367346938775511,-0.2949907235621521,-0.5528756957328386,-2.2708719851576995,-1.111317254174397,-1.0630797773654916
P35568,-0.0040290088638195,-0.2610797743755036,-0.39564867042707497,-0.49798549556809024,-1.5052377115229654,-0.12248186946011282,-0.22481869460112813,-0.48186946011281223,-0.5954875100725222,-1.330378726833199,-1.152296535052377,-0.35294117647058826,-0.9379532634971797,-1.6164383561643836,0.8267526188557615,0.7397260273972602,0.2062852538275584,-2.1337630942788075,-1.2393231265108784,-0.9411764705882353
F1MWF1,-0.8790007806401249,-0.7845433255269321,-0.8555815768930523,-1.029664324746292,-1.8266978922716628,-0.6135831381733021,-0.5925058548009368,-1.526151444184231,-0.7540983606557377,-0.9711163153786104,-1.0070257611241218,-0.8024980483996877,-0.9110070257611241,-1.327088212334114,-0.834504293520687,-0.3669008587041374,-0.44028103044496486,-2.129586260733802,-1.174863387978142,-0.6557377049180327
O14901,-1.3268101761252447,-0.6810176125244618,-1.4383561643835616,-1.8571428571428572,-1.1604696673189825,-0.48336594911937375,-0.7671232876712328,-1.6966731898238747,-0.18395303326810175,-2.3776908023483365,-2.12133072407045,-0.5264187866927593,-1.796477495107632,-2.2211350293542074,-0.7847358121330724,-0.18199608610567514,-0.9119373776908023,-3.1780821917808217,-1.8669275929549902,-2.1291585127201564
A2A935,-1.5243328100470959,-0.7119309262166404,-1.4183673469387754,-1.8673469387755102,-1.194662480376766,-0.45447409733124017,-0.717425431711146,-1.969387755102041,0.19152276295133439,-2.416012558869702,-2.097331240188383,-0.2802197802197802,-2.0384615384615383,-2.3014128728414445,-1.4285714285714286,-0.29120879120879123,-0.8516483516483516,-3.7009419152276295,-1.8202511773940346,-2.160125588697017
Q9NTG7,-0.7386934673366834,-0.9874371859296482,-1.4195979899497488,-1.4547738693467336,-2.158291457286432,-1.0804020100502512,-1.0979899497487438,-1.6683417085427135,-1.3316582914572865,-1.6055276381909547,-1.4748743718592965,-1.0678391959798994,-1.3768844221105527,-1.8015075376884422,-1.650753768844221,-0.8417085427135679,-1.0904522613065326,-2.592964824120603,-1.7336683417085428,-1.349246231155779
P56726,-0.5542929292929293,-1.0681818181818181,-0.9267676767676768,-1.4747474747474747,-1.2891414141414141,-0.8383838383838383,-1.0517676767676767,-1.2361111111111112,-1.246212121212121,-0.7436868686868687,-0.7727272727272727,-0.8888888888888888,-0.6515151515151515,-0.9242424242424242,-1.0353535353535352,-0.30808080808080807,-0.3926767676767677,-1.946969696969697,-0.827020202020202,-0.7462121212121212
P38646,-0.7846607669616519,-1.738938053097345,-1.6017699115044248,-1.5958702064896755,-3.146017699115044,-1.1253687315634218,-1.1283185840707965,-2.252212389380531,-2.28023598820059,-1.8289085545722714,-2.0132743362831858,-1.1135693215339233,-1.7876106194690264,-2.8244837758112094,-2.5471976401179943,-1.028023598820059,-1.0457227138643068,-3.9985250737463125,-2.715339233038348,-1.5147492625368733
Q3UJU9,-0.2857142857142857,-0.5479744136460555,-0.6886993603411514,-0.814498933901919,-1.7398720682302773,-0.12366737739872068,-0.09594882729211088,-1.1620469083155651,-0.7910447761194029,-1.1279317697228144,-0.8486140724946695,-0.279317697228145,-0.6481876332622601,-1.275053304904051,-1.3326226012793176,-0.14925373134328357,-0.3070362473347548,-1.9147121535181237,-0.9275053304904051,-0.9211087420042644
P21796,-0.14893617021276595,-1.2056737588652482,-0.4397163120567376,-1.0886524822695036,-2.0673758865248226,-0.7695035460992907,-1.0283687943262412,-0.8049645390070922,-1.1595744680851063,-1.177304964539007,-0.9822695035460993,-0.5921985815602837,-1.1347517730496455,-1.1382978723404256,-1.624113475177305,-0.04609929078014184,0.13120567375886524,-2.4148936170212765,-1.198581560283688,-0.7943262411347518
O75376,-0.06601066010660106,-0.27593275932759326,-0.4792947929479295,-0.4321443214432144,-1.911029110291103,0.25871258712587125,0.4112341123411234,-1.0246002460024601,-0.7880278802788028,-1.3284132841328413,-1.0746207462074622,0.06888068880688807,-0.9278392783927839,-1.937269372693727,0.3726937269372694,0.4034440344403444,0.06929069290692907,-2.4952849528495284,-1.5772857728577285,-0.9782697826978269
Q63503,-0.5553745928338762,-0.7068403908794788,-0.7084690553745928,-1.0700325732899023,-1.0944625407166124,-0.26221498371335505,-0.7100977198697068,-1.241042345276873,-0.5244299674267101,-1.267100977198697,-0.9218241042345277,-0.8729641693811075,-0.3925081433224756,-1.298045602605863,-0.5863192182410424,0.10097719869706841,-0.4381107491856677,-2.6188925081433223,-1.0309446254071661,-1.0863192182410424
O88848,-1.308108108108108,-1.7405405405405405,-1.6432432432432433,-1.8594594594594596,-2.156756756756757,-1.4324324324324325,-1.5135135135135136,-2.4324324324324325,-2.0054054054054054,-1.0702702702702702,-1.3837837837837839,-1.1783783783783783,-1.3675675675675676,-1.8054054054054054,-2.9405405405405407,-1.0972972972972972,-1.1675675675675676,-3.4756756756756757,-1.9243243243243244,-1.1135135135135135
Q02248,-0.12051282051282051,-0.7153846153846154,-0.5538461538461539,-0.6846153846153846,-1.167948717948718,-0.17051282051282052,-0.2846153846153846,-1.2294871794871796,-0.9141025641025641,-0.6679487179487179,-0.39487179487179486,-0.55,-0.47435897435897434,-1.6205128205128205,-1.1666666666666667,-0.1358974358974359,-0.4717948717948718,-2.603846153846154,-1.505128205128205,-0.5807692307692308
P11881,-0.5596797671033479,-0.7758369723435226,-0.7106986899563319,-1.0189228529839884,-1.74745269286754,-0.3584425036390102,-0.49708879184861715,-1.525109170305677,-0.913391557496361,-0.99235807860262,-0.8508005822416302,-0.5618631732168851,-0.4959970887918486,-1.3380640465793303,-1.4632459970887919,-0.34788937409024745,-0.3548034934497817,-2.12882096069869,-1.0585880640465792,-0.8129548762736536
Q9UBK2,-0.38268506900878296,-0.4027603513174404,-0.4190715181932246,-0.5307402760351317,-1.6787954830614806,-0.10790464240903387,-0.09786700125470514,-1.2258469259723965,-0.7427854454203262,-1.5508155583437893,-1.3877038895859473,-0.205771643663739,-0.9799247176913425,-1.642409033877039,-0.5407779171894604,0.2559598494353827,-0.22710163111668757,-2.2446675031367627,-1.1543287327478042,-1.2634880803011292
P30405,-0.970873786407767,-1.5436893203883495,-1.2281553398058251,-1.5242718446601942,-2.378640776699029,-1.4077669902912622,-1.2718446601941749,-1.5,-1.796116504854369,-1.5533980582524272,-1.8106796116504855,-1.0097087378640777,-1.5388349514563107,-1.8300970873786409,-1.6359223300970873,-0.8980582524271845,-0.7233009708737864,-3.3300970873786406,-2.0194174757281553,-1.1893203883495145
Q15907,-1.3640552995391706,-1.5622119815668203,-1.4470046082949308,-1.7972350230414746,-1.8433179723502304,-1.1428571428571428,-1.3179723502304148,-2.47926267281106,-1.792626728110599,-1.3640552995391706,-1.5852534562211982,-1.2165898617511521,-1.5115207373271888,-2.2119815668202767,-2.5299539170506913,-0.9262672811059908,-1.064516129032258,-3.5806451612903225,-2.142857142857143,-1.3179723502304148
P70452,-0.49158249158249157,-0.30976430976430974,-0.4983164983164983,-0.5791245791245792,-2.3737373737373737,0.2727272727272727,0.003367003367003367,-1.8552188552188553,-1.1447811447811447,-0.9595959595959596,-0.8855218855218855,-0.19865319865319866,-0.5622895622895623,-1.7912457912457913,-2.0841750841750843,-0.265993265993266,-0.4511784511784512,-3.026936026936027,-1.707070707070707,-0.7912457912457912
Q60770,-0.7715736040609137,-0.8375634517766497,-0.8646362098138748,-0.9593908629441624,-2.065989847715736,-0.5736040609137056,-0.583756345177665,-1.8257191201353637,-1.2267343485617597,-0.9424703891708968,-0.7817258883248731,-0.5008460236886633,-0.6751269035532995,-1.3587140439932317,-1.6582064297800339,-0.4720812182741117,-0.55668358714044,-2.703891708967851,-1.2893401015228427,-0.856175972927242
Q57UH8,-1.2819148936170213,-1.5425531914893618,-1.5106382978723405,-1.7712765957446808,-2.0,-1.2765957446808511,-1.324468085106383,-2.4308510638297873,-1.9095744680851063,-1.196808510638298,-1.4734042553191489,-1.1329787234042554,-1.3670212765957446,-2.0691489361702127,-2.8191489361702127,-1.0691489361702127,-1.0159574468085106,-3.526595744680851,-1.872340425531915,-1.2287234042553192
P63044,-0.2956521739130435,-0.8608695652173913,-0.7565217391304347,-1.2608695652173914,-2.208695652173913,-0.33043478260869563,-0.8782608695652174,-1.565217391304348,-1.6782608695652175,-0.991304347826087,-1.0347826086956522,-0.5043478260869565,-0.5391304347826087,-1.617391304347826,-1.5565217391304347,-0.2,-0.4956521739130435,-2.5391304347826087,-1.4695652173913043,-0.8
